342 100
THE 0.2620687 -0.12441804 -0.13461515 -0.09758052 -0.089199536 -0.17501187 -0.12192446 -0.10034431 0.19031885 -0.29270136 -0.20913841 0.40326127 -0.09072947 0.0059833294 0.3115814 -0.47587293 0.039734226 -0.23403217 -0.11510089 0.22212753 0.22811455 0.08454051 -0.030192086 0.22421373 0.007968675 0.0112508545 -0.10368216 0.19199944 0.082053736 -0.21550438 -0.071803086 0.0733641 0.17785947 0.07394261 0.064329706 0.18031539 -0.06720217 -0.049183868 -0.090790875 0.11573602 0.15357126 -0.23518294 -0.12813343 0.27288446 -0.01115009 -0.23916748 -0.07326352 0.011086352 0.16726454 0.17246845 0.057290178 -0.25824526 0.28084934 0.038230427 0.006390772 -0.058339156 0.1369474 -0.05515129 0.40250656 0.417257 -0.14845303 0.20271228 -0.11145833 -0.07381188 -0.050631266 -0.06989626 -0.039500326 0.13735606 0.3335307 -0.02888615 0.17781153 0.34854877 -0.19032212 0.015844174 0.21038416 -0.12784185 0.037759047 -0.32725802 -0.08003729 0.47460413 -0.04778223 0.14987524 -0.033450995 -0.04188073 0.08644598 0.0138554 0.06554709 -0.19950509 -0.14573127 0.039106287 0.16048987 0.18671194 -0.009896813 -0.0028614986 -0.121099636 -0.031539753 -0.21112293 -0.022979256 -0.11253268 0.19393541
IN 0.3063555 -0.10491869 -0.07615092 -0.09091188 0.033313755 -0.059400648 -0.098045334 -0.26400644 0.17716439 -0.3351291 -0.28375757 0.2824936 -0.13978538 -0.16111517 0.34495038 -0.42228168 0.14797199 -0.08165971 -0.02343464 0.1467324 0.0776863 0.16487062 -0.122735135 0.16039336 -0.097272575 0.025369849 -0.011991668 0.22297747 0.0046559623 -0.18579425 0.10844239 0.11014414 0.30452478 0.02050215 0.048266824 0.13316487 0.0034110306 -0.01935898 0.057015765 0.14746663 0.31892416 -0.114648566 0.014891569 0.17031 -0.14812352 -0.28107992 -0.1151377 -0.085692056 0.014531273 0.10414248 0.08560649 -0.068912424 0.36242515 0.15218176 -0.025054062 -0.0265395 0.111746565 -0.063022286 0.29043797 0.34486133 -0.18743747 0.15598568 0.016682811 -0.20015493 -0.07210421 0.018246863 0.14989667 0.047856376 0.21312658 0.044981133 0.19319932 0.25273404 -0.08264567 0.12526608 0.35361 -0.12242075 -0.11661607 -0.22797674 -0.022525912 0.4923952 0.04217851 0.12829494 -0.089238726 0.0513965 0.080568165 0.105517365 0.08673738 -0.19303901 -0.0773967 0.10394593 0.12120491 0.15434378 -0.14522593 0.05070086 -0.09149347 0.15202071 -0.20678136 0.107485764 -0.13394664 0.21700495
CORONAVIRUS 0.3071114 -0.12049716 -0.15251473 -0.09048399 -0.08304773 -0.15712279 -0.12365756 -0.11239804 0.18748493 -0.30758452 -0.21968776 0.4314637 -0.09904708 0.012351181 0.33210993 -0.5060949 0.04642705 -0.22515438 -0.12061237 0.24003379 0.22798449 0.06170105 -0.029046735 0.23715593 0.00494219 0.022485193 -0.12560685 0.19661449 0.091919295 -0.20905721 -0.056555383 0.037416745 0.17908151 0.07941504 0.05422516 0.17666028 -0.08019924 -0.063299865 -0.087519035 0.11544491 0.19046967 -0.21970741 -0.11448092 0.2734595 -0.0334579 -0.25509438 -0.08132959 0.002401708 0.18766704 0.15315665 0.07558476 -0.2545146 0.3118606 0.01256319 0.0021741954 -0.037028573 0.12139938 -0.082616046 0.39365754 0.4154763 -0.17099914 0.20318328 -0.10181381 -0.086092934 -0.056377847 -0.052288607 -0.04999353 0.1461827 0.31383187 -0.032731358 0.16885056 0.37313262 -0.21454269 0.02978186 0.2293982 -0.112628445 0.029628174 -0.3129253 -0.056152813 0.48549277 -0.057027925 0.15314 -0.01977694 -0.04114773 0.107248 0.0022323825 0.07922348 -0.18874657 -0.1331951 0.045973856 0.17922428 0.19409373 -0.013280775 0.016496746 -0.1397158 -0.052861795 -0.20636158 -0.009031701 -0.09981113 0.22388618
TO 0.2925058 -0.12564076 -0.18948747 -0.09892708 -0.13459605 -0.19439174 -0.13562411 -0.098654635 0.20772402 -0.318096 -0.20087565 0.4697791 -0.096836716 0.05191298 0.32502043 -0.53520066 0.021299552 -0.2846211 -0.1380585 0.25557634 0.26660523 0.067289844 -0.006947467 0.2593783 0.044329636 0.0013364692 -0.13833873 0.18171409 0.11596998 -0.22570829 -0.10218171 0.0688783 0.16339162 0.079801895 0.07785813 0.2049185 -0.07999859 -0.058600944 -0.11786498 0.10500363 0.13836807 -0.2598618 -0.1440841 0.31067064 0.0073098624 -0.25591716 -0.069039434 0.034215126 0.22827277 0.18187052 0.0689833 -0.3019698 0.28914395 -0.0077431626 0.015348799 -0.049321912 0.1336291 -0.06916578 0.41882247 0.4527697 -0.15217972 0.22736794 -0.13393998 -0.06578074 -0.05869327 -0.07396985 -0.08286468 0.17527473 0.36969894 -0.050284706 0.18381995 0.3818355 -0.23513085 -0.002085431 0.18266849 -0.13347828 0.069683075 -0.35565948 -0.09458513 0.4959322 -0.061899025 0.16151436 -0.011391449 -0.061637007 0.102818325 -0.012567151 0.06459221 -0.1963638 -0.15129767 0.047657717 0.17686649 0.19028614 -0.0022584298 -0.011425013 -0.1592883 -0.09117299 -0.2064818 -0.040737294 -0.09863318 0.1931025
A 0.2832885 -0.11098817 -0.051496238 -0.085525 0.041877225 -0.049173202 -0.08468553 -0.2753681 0.16345851 -0.32078 -0.28780884 0.24072343 -0.1241841 -0.18258566 0.3609763 -0.40477547 0.15870854 -0.055558044 0.008860576 0.11985708 0.05529565 0.16501561 -0.12958555 0.15618356 -0.11977568 0.021152299 -0.024585295 0.22329922 -0.01905226 -0.16694914 0.14029689 0.11393342 0.3048016 0.0054489165 0.030794663 0.12487005 0.017180633 -0.012607951 0.0739775 0.16501068 0.32552183 -0.091909856 0.04456534 0.1520506 -0.1727976 -0.29013503 -0.12785375 -0.10538177 -0.0034111124 0.10534557 0.08631537 -0.038182057 0.36264923 0.15981302 -0.039699823 -0.017247962 0.113490224 -0.06598498 0.2774658 0.33874384 -0.19086368 0.13888177 0.03259293 -0.20697267 -0.06298281 0.03620661 0.20167416 0.023346527 0.19415048 0.02889648 0.17796122 0.24635115 -0.050246757 0.14957072 0.37158668 -0.12762876 -0.14185613 -0.20397858 -0.00830969 0.5013738 0.04619963 0.114023075 -0.10881204 0.064380825 0.07464959 0.12380218 0.08153504 -0.18942654 -0.0642161 0.107804775 0.11416714 0.14773743 -0.16735436 0.0698446 -0.07715867 0.16663694 -0.22196825 0.1122626 -0.1516245 0.23460093
OF 0.32471508 -0.12648018 -0.0026420883 -0.07994505 0.098000035 0.0198714 -0.047275543 -0.36787495 0.14916644 -0.35109854 -0.32062155 0.16735773 -0.16962688 -0.2742281 0.36474967 -0.36061177 0.24230325 0.021266228 0.033000465 0.08026054 -0.031592377 0.23234108 -0.19784968 0.098687254 -0.18388808 0.04321259 0.0464633 0.21702716 -0.037999615 -0.15463778 0.2467615 0.1371871 0.39798164 -0.009338067 0.024220629 0.06412056 0.06274583 0.008569261 0.14123547 0.15762125 0.45290107 -0.019871237 0.10010916 0.083425105 -0.23078063 -0.3186409 -0.14251325 -0.16930918 -0.10135041 0.056279995 0.10110575 0.0725663 0.39245567 0.23638506 -0.0808584 0.017401768 0.10280419 -0.0591613 0.18130992 0.29249468 -0.19640055 0.09614994 0.12299607 -0.29254973 -0.08669524 0.06811884 0.28772554 -0.03755328 0.14009006 0.08249195 0.21223964 0.193365 -0.0042115515 0.1852967 0.4517441 -0.113978356 -0.24557683 -0.14449774 0.03320184 0.524135 0.11699831 0.10697775 -0.13915676 0.13774125 0.08606489 0.16260487 0.11114372 -0.20728727 -0.027581401 0.1379141 0.08126873 0.13956715 -0.23408778 0.1053241 -0.046116885 0.2873573 -0.22858134 0.1924639 -0.17649552 0.24263236
COVID-19 0.28288016 -0.123446494 -0.1454464 -0.09676043 -0.08200324 -0.14008905 -0.1251902 -0.11510791 0.17645404 -0.30566975 -0.21707237 0.3988203 -0.10829498 0.0041591823 0.33770013 -0.47995457 0.06720147 -0.20836572 -0.10746018 0.21737514 0.20653212 0.07237756 -0.024554322 0.23793203 0.0010482296 0.022889959 -0.11689382 0.19753218 0.072872825 -0.19914153 -0.052050654 0.055406354 0.17632392 0.06172772 0.06256432 0.15362416 -0.07107849 -0.050940942 -0.061996643 0.10295062 0.18909559 -0.19584809 -0.092097804 0.2638457 -0.03514374 -0.25694898 -0.08229075 -0.012909554 0.17427611 0.14330384 0.07237638 -0.23745975 0.29733607 0.027609896 -0.009932291 -0.036549505 0.12542047 -0.075763784 0.3741281 0.40226927 -0.15420552 0.18509987 -0.099344224 -0.08968225 -0.05499738 -0.044991165 -0.03205534 0.13199413 0.31822473 -0.036231846 0.17476104 0.35449776 -0.20639224 0.03905629 0.2215436 -0.109326564 0.030450061 -0.320569 -0.05549915 0.47926897 -0.04249306 0.14736271 -0.027983021 -0.027053315 0.10379833 0.024048043 0.084101684 -0.18031234 -0.11857557 0.04245207 0.16681837 0.18879291 -0.019838575 0.018436247 -0.13653313 -0.053198144 -0.20696305 -0.016805261 -0.10757091 0.22258738
AND 0.3093968 -0.110764384 -0.05417509 -0.07532259 0.03934402 0.010802566 -0.054406647 -0.26254165 0.14900786 -0.33512112 -0.293955 0.2097805 -0.14774998 -0.17541683 0.362555 -0.38073406 0.17399597 -0.045036707 -0.018199764 0.1020195 0.015187921 0.124477334 -0.14750029 0.16286495 -0.13977219 0.037231095 -0.046206217 0.20742302 0.0053617563 -0.12842794 0.18499766 0.07214591 0.3237995 0.02092641 0.027307646 0.08354386 0.010695434 0.0008146947 0.08381614 0.13859527 0.37053302 -0.028206237 0.06565725 0.10341895 -0.20428306 -0.31311384 -0.119563125 -0.120495476 -0.016922472 0.06671192 0.11862615 -0.027298136 0.3729474 0.1710711 -0.068652175 0.013919748 0.1153209 -0.060704563 0.1998666 0.33162403 -0.20668523 0.11221744 0.06268763 -0.21413437 -0.05191788 0.034974527 0.17234702 0.027605359 0.16629395 0.050814893 0.17706913 0.2794355 -0.0846706 0.14721368 0.3760474 -0.10628793 -0.1730568 -0.1753405 0.042454813 0.49696067 0.047094062 0.111679554 -0.10574228 0.06663239 0.08894441 0.10671812 0.11514292 -0.19893403 -0.054425135 0.13335755 0.103587456 0.12252219 -0.18573418 0.07600375 -0.078130975 0.1744157 -0.2273315 0.15652871 -0.15260312 0.27542126
FOR 0.27515587 -0.12929903 -0.15267347 -0.08820936 -0.10859467 -0.15165395 -0.12676544 -0.114705995 0.1928846 -0.31622258 -0.2172457 0.40117103 -0.099316135 0.0015597976 0.3412282 -0.49562716 0.061014276 -0.21785389 -0.10993847 0.21850434 0.21211156 0.07617915 -0.022354422 0.23802516 0.007058818 0.017527128 -0.11921862 0.18944694 0.07222548 -0.20028436 -0.059608445 0.07023384 0.17771147 0.06235802 0.058059517 0.15996802 -0.07719623 -0.048610155 -0.070398755 0.108281165 0.17686252 -0.2001378 -0.095922545 0.27177364 -0.03879852 -0.2599169 -0.078251675 -0.000814985 0.17917491 0.1542964 0.07402388 -0.24685772 0.30288613 0.025300207 -0.0002969015 -0.040070295 0.1305536 -0.059486568 0.3704461 0.41263363 -0.1644537 0.18414587 -0.09355873 -0.08307012 -0.06968723 -0.04599033 -0.033832602 0.12965001 0.3323836 -0.03363051 0.17758738 0.37588674 -0.19810548 0.025333194 0.22290689 -0.11281736 0.025549782 -0.33672252 -0.064193174 0.4882905 -0.052701455 0.14453003 -0.04372796 -0.043704946 0.11268633 0.012256442 0.08250614 -0.18219765 -0.12304976 0.059685316 0.17369431 0.18025358 -0.026568113 0.017388389 -0.1383899 -0.04908403 -0.21395318 -0.018356742 -0.097120054 0.21957876
IS 0.27097073 -0.11035112 -0.12532257 -0.08540297 -0.06886649 -0.13213485 -0.112565145 -0.13895474 0.18174274 -0.30211392 -0.2309291 0.36966544 -0.10972559 -0.0314287 0.33473983 -0.4687862 0.064875446 -0.1884411 -0.08695013 0.19764131 0.17371029 0.083381504 -0.044433847 0.21235676 -0.019508451 0.014646828 -0.09868931 0.1926046 0.053407528 -0.1905097 -0.008836822 0.074631765 0.19560844 0.05383977 0.060686287 0.15434384 -0.0491772 -0.04070427 -0.04566049 0.11545757 0.19295605 -0.17275985 -0.07325223 0.23435679 -0.06463701 -0.24931636 -0.09377862 -0.016990062 0.126385 0.14565954 0.06966763 -0.19509874 0.2965517 0.0552535 -0.0042419136 -0.036256593 0.12546538 -0.06254213 0.3506592 0.389624 -0.1573599 0.18145567 -0.062182575 -0.09789405 -0.0527818 -0.033783622 0.015170504 0.11674008 0.29171315 -0.011621953 0.16829799 0.333381 -0.16512139 0.062737025 0.24716821 -0.11225887 -0.009954273 -0.28746563 -0.04781119 0.46906555 -0.027421363 0.13777985 -0.05192621 -0.02308897 0.09520113 0.03273473 0.07290805 -0.1787731 -0.109100305 0.06882545 0.14677829 0.1635114 -0.05513746 0.0246458 -0.12713632 0.001949589 -0.21060506 0.011000614 -0.10786135 0.21185334
ON 0.38774726 -0.09688211 0.090456955 -0.077688485 0.26256368 0.20091827 0.013637045 -0.5937728 0.13895854 -0.41750076 -0.4389934 -0.03208544 -0.22055504 -0.5175482 0.44920358 -0.2705312 0.4163794 0.21836945 0.14661129 -0.0468094 -0.26219508 0.32232976 -0.37466103 0.020923238 -0.3701064 0.055173147 0.12433988 0.28476894 -0.14597186 -0.10917611 0.5268676 0.18870567 0.6152425 -0.060243353 0.00037121784 0.0005035218 0.1506491 0.08666925 0.33143714 0.22352123 0.7112478 0.14946145 0.29142886 -0.0717029 -0.46451774 -0.42849916 -0.22144137 -0.31928104 -0.33620575 -0.01994293 0.18390295 0.33252698 0.5407068 0.42961958 -0.14841856 0.063698456 0.12428602 -0.04527044 0.04403622 0.2577643 -0.29233083 0.04691277 0.29884252 -0.4892983 -0.08474564 0.17268527 0.57646286 -0.15956041 0.0010616423 0.18904024 0.23545402 0.121246986 0.14332314 0.3346669 0.68814313 -0.13091998 -0.4876449 0.0021450073 0.14954938 0.60142344 0.2387009 0.07883701 -0.25679523 0.24148215 0.06539201 0.29458314 0.15475006 -0.24142128 0.03870977 0.23642318 0.035172757 0.09985707 -0.4494307 0.18141505 0.008401177 0.5703041 -0.26614293 0.41381717 -0.27019346 0.35397038
WITH 0.29865038 -0.12303549 -0.15688182 -0.093293704 -0.08970883 -0.13071693 -0.11125819 -0.116277784 0.17283759 -0.3132632 -0.21579178 0.3831388 -0.10923059 0.012926643 0.35084367 -0.4820609 0.053191915 -0.20992038 -0.09565468 0.20618646 0.19168898 0.049817212 -0.034331392 0.24887116 -0.01664132 0.03128061 -0.131243 0.19227701 0.08103136 -0.17510527 -0.039849218 0.035212662 0.18279071 0.06791824 0.05786105 0.15324251 -0.06282057 -0.04254803 -0.038781475 0.100046106 0.19564423 -0.17602931 -0.06784011 0.24955693 -0.060137864 -0.27007273 -0.08422121 -0.0096924985 0.1598004 0.13898604 0.077513605 -0.23215818 0.3095204 0.02327811 -0.021939458 -0.013562803 0.12680517 -0.08090824 0.3542549 0.401931 -0.1739946 0.16678825 -0.08875526 -0.0784071 -0.050311353 -0.045002375 -0.033337384 0.13976818 0.3136201 -0.028612776 0.1621515 0.37886363 -0.21468718 0.043680146 0.2429091 -0.11744533 0.006575411 -0.31682116 -0.038476046 0.4930443 -0.05560163 0.14287578 -0.025065232 -0.037659854 0.11361397 0.024321234 0.094324656 -0.1800031 -0.11390636 0.07344404 0.16522413 0.17592438 -0.04717559 0.033206366 -0.13417614 -0.055456005 -0.22479017 -0.010302116 -0.08914643 0.23042884
THAT 0.2950396 -0.11217636 -0.076052465 -0.08939909 0.011516023 -0.05097473 -0.07433249 -0.24572352 0.16467777 -0.32292676 -0.2683849 0.25433907 -0.13488193 -0.15450512 0.35925657 -0.41114032 0.15016308 -0.07942341 -0.027579058 0.12516153 0.057638973 0.14354476 -0.114482135 0.16932803 -0.095948584 0.024598679 -0.044981778 0.22358064 -0.004113784 -0.16874719 0.11583122 0.10586702 0.28821415 0.0243474 0.043950707 0.11276472 0.004298457 -0.011957906 0.051699482 0.15031633 0.313698 -0.09569792 0.010187528 0.15476921 -0.15614848 -0.29349333 -0.12328024 -0.09259814 0.008140154 0.102933966 0.093267694 -0.06403365 0.35877278 0.14776564 -0.03574349 -0.01709664 0.122410946 -0.058057208 0.270005 0.34997156 -0.18500343 0.1411197 0.016933192 -0.19379921 -0.07612447 0.024924763 0.1524991 0.034254182 0.20914759 0.029636307 0.16937687 0.2802061 -0.086038135 0.13106897 0.33291423 -0.11491076 -0.12135181 -0.20621715 0.011692012 0.48652697 0.032779466 0.12181247 -0.104017094 0.04258374 0.088973045 0.079558514 0.08898206 -0.19090998 -0.06943679 0.09890207 0.11375786 0.15353964 -0.14073308 0.059767306 -0.07737781 0.1346268 -0.22952603 0.11080113 -0.15421505 0.24128406
HAS 0.33770648 -0.10583062 0.04497423 -0.081733294 0.14448194 0.08093287 -0.03304301 -0.42742315 0.14647432 -0.36718202 -0.34745014 0.101300746 -0.18996006 -0.3575058 0.4060765 -0.32459974 0.31053934 0.09109779 0.049353812 0.053647287 -0.10417933 0.2592503 -0.27013382 0.077496424 -0.25272503 0.04778138 0.058342498 0.24456695 -0.07973653 -0.1502335 0.31653795 0.15829471 0.46332726 -0.019629838 0.020389646 0.033184834 0.09047855 0.028343687 0.17773344 0.18499339 0.545397 0.017564325 0.13912293 0.048328087 -0.3267559 -0.34563085 -0.17524332 -0.23031926 -0.1808546 0.04176164 0.13701291 0.14627708 0.45415694 0.29603776 -0.112831235 0.034719434 0.11729574 -0.036221977 0.15907869 0.2780865 -0.23165348 0.07876455 0.18960774 -0.35069203 -0.104021646 0.099398665 0.38670382 -0.09253776 0.12657243 0.115970455 0.20806006 0.188145 0.053012818 0.23240502 0.51820093 -0.11266157 -0.31563222 -0.0981822 0.06562973 0.54338217 0.12778021 0.09431828 -0.18616962 0.16432601 0.085022144 0.20156093 0.13547415 -0.22538266 -0.009877565 0.14973398 0.056764547 0.14728692 -0.29146707 0.124420345 -0.02982913 0.3515703 -0.23992272 0.25205135 -0.20194948 0.29797286
FROM 0.2929284 -0.11467982 -0.1371253 -0.08755205 -0.060298666 -0.12967952 -0.11113087 -0.16346413 0.19133435 -0.32241753 -0.2485202 0.36355335 -0.11726687 -0.04358567 0.35485464 -0.4728209 0.0848696 -0.18621987 -0.07757244 0.19441351 0.16317847 0.106280245 -0.05947834 0.22593212 -0.027115406 0.011694197 -0.08801325 0.208134 0.05830117 -0.19779913 -0.0060142986 0.08636507 0.22163141 0.047679875 0.063471474 0.15781194 -0.04251486 -0.04508169 -0.02393101 0.12594312 0.21974006 -0.17671847 -0.062682614 0.25292626 -0.07547834 -0.26235712 -0.09486913 -0.027823223 0.12575893 0.14056964 0.07995206 -0.19276953 0.3258574 0.06771615 -0.0068041044 -0.030985013 0.12872519 -0.06322802 0.3516147 0.40513355 -0.1696389 0.18175714 -0.060590133 -0.12452294 -0.070893236 -0.031063301 0.03710412 0.10467056 0.29421908 -0.008700191 0.181814 0.33884516 -0.17413844 0.070337266 0.27743295 -0.1242095 -0.024323322 -0.30106577 -0.052657645 0.49752426 -0.019815201 0.14734869 -0.05846201 -0.014139357 0.095917806 0.044671137 0.086994305 -0.19249338 -0.115396865 0.06609678 0.154807 0.17765468 -0.07241754 0.03309925 -0.11806096 0.015319495 -0.22314 0.023700535 -0.11544056 0.22738251
PEOPLE 0.2799391 -0.11435011 -0.11042877 -0.08553056 -0.028990306 -0.10646897 -0.09509257 -0.19127108 0.16831851 -0.30771253 -0.23232527 0.31548303 -0.10937388 -0.07584095 0.3361151 -0.43542746 0.09489882 -0.15055722 -0.055314597 0.16596624 0.1276813 0.11681183 -0.06628332 0.19253564 -0.051316965 0.0106548695 -0.06468555 0.20428164 0.046010427 -0.17732601 0.02116418 0.0826099 0.23076876 0.03635295 0.046000164 0.15297545 -0.028833618 -0.02849617 0.006437092 0.12839127 0.24032745 -0.15278502 -0.035419032 0.22214735 -0.07924274 -0.2591854 -0.10134296 -0.04024605 0.09462175 0.12691161 0.07567972 -0.14965226 0.3090624 0.08823555 -0.017101992 -0.023700595 0.11808075 -0.065177925 0.31678334 0.3703856 -0.15861715 0.15294923 -0.03785102 -0.13731767 -0.0628287 -0.019853175 0.07209131 0.08819429 0.25132594 0.0036435348 0.17579989 0.28929648 -0.14533822 0.078864165 0.2813945 -0.10891975 -0.04443942 -0.27456856 -0.03957019 0.47057915 -0.0015697439 0.12175551 -0.07492536 0.0072850683 0.086597376 0.06498108 0.076535545 -0.18553646 -0.103825524 0.07669087 0.13827 0.1528122 -0.08482767 0.03271261 -0.09478493 0.04866586 -0.20461585 0.033503443 -0.12225357 0.20632844
VIDEO 0.29174444 -0.095880024 -0.02879334 -0.09394717 0.067781374 -0.012508779 -0.06263037 -0.3179248 0.15436447 -0.3305422 -0.3049689 0.20690186 -0.13500583 -0.22769523 0.35639083 -0.36815476 0.19048825 -0.03159886 0.03147416 0.10559138 0.010397751 0.19550468 -0.17163727 0.12309818 -0.15015876 0.026958827 0.005876483 0.22697298 -0.02145413 -0.1661963 0.1598874 0.1335342 0.3364889 -0.0074475296 0.036274903 0.11257585 0.03896155 0.0054034623 0.10301777 0.16480011 0.36924478 -0.06359525 0.06671144 0.12671451 -0.18921447 -0.28311706 -0.14646105 -0.13587175 -0.042179585 0.07486648 0.10028302 0.0134758605 0.38159314 0.17728662 -0.05102034 -0.009887622 0.10109394 -0.05355055 0.252165 0.32520476 -0.18755502 0.11236481 0.062669784 -0.23825152 -0.07185511 0.05624718 0.2350205 -0.005260743 0.15989375 0.057361085 0.19628166 0.21804571 -0.023623608 0.15789478 0.41336477 -0.111410074 -0.18868282 -0.18181792 -0.0058969576 0.51334816 0.08653228 0.09651818 -0.116948135 0.08935348 0.0783136 0.15065794 0.09161549 -0.20660944 -0.062759735 0.108891115 0.11007761 0.14014001 -0.18793872 0.08312106 -0.054429356 0.20888889 -0.21867727 0.1350343 -0.15622176 0.24134377
BY 0.2928375 -0.108558916 -0.119960845 -0.08586089 -0.06263099 -0.117926374 -0.10824778 -0.15710579 0.18762742 -0.31578815 -0.23989147 0.36249104 -0.11608246 -0.048271254 0.33414507 -0.4680817 0.08930326 -0.18498623 -0.080665104 0.185028 0.16618025 0.103532344 -0.060872912 0.21034537 -0.025008198 0.018481838 -0.08749088 0.19718121 0.05052282 -0.19050449 -0.007213423 0.07569414 0.21408534 0.045641426 0.06716737 0.15376972 -0.0454091 -0.03636774 -0.03999958 0.123684704 0.22024123 -0.17095695 -0.057451632 0.23815502 -0.07809858 -0.25968972 -0.09511996 -0.026038457 0.12141241 0.13008563 0.07995669 -0.19403398 0.32107717 0.06756407 -0.012457625 -0.028054763 0.11558167 -0.06312464 0.34815127 0.39323807 -0.16964412 0.18233828 -0.056977004 -0.11690451 -0.054757643 -0.022280011 0.025101151 0.10860042 0.2848543 -0.008770571 0.17796879 0.33111688 -0.15840942 0.05967173 0.2662768 -0.11282324 -0.022370962 -0.28507045 -0.043570034 0.4907084 -0.016698847 0.14500852 -0.049002014 -0.0063233958 0.095053494 0.0389396 0.08846155 -0.19255146 -0.11390021 0.066345915 0.15622789 0.16199356 -0.06606377 0.026466414 -0.12495221 0.015364032 -0.22146304 0.014740802 -0.11248163 0.21972397
ARE 0.29294512 -0.12828225 -0.13882852 -0.08465047 -0.08297239 -0.14192761 -0.12253001 -0.1545912 0.18854527 -0.31674275 -0.22543561 0.3911037 -0.117578104 -0.018252473 0.34287938 -0.48954332 0.06328445 -0.19943236 -0.093010135 0.2051674 0.17923725 0.07064836 -0.036292907 0.24578267 -0.01645239 0.0158537 -0.108306006 0.19635001 0.06881269 -0.1906836 -0.025648652 0.07492945 0.19889249 0.05096949 0.052380167 0.17056581 -0.060272627 -0.04912692 -0.037415516 0.11751332 0.21180263 -0.18058659 -0.083172515 0.2680941 -0.042918228 -0.26994967 -0.08896129 -0.007814461 0.14939514 0.14704758 0.074326344 -0.2188565 0.31024456 0.045474164 -0.010729296 -0.034262445 0.13472404 -0.066612825 0.37050784 0.42010096 -0.16617785 0.19110948 -0.08662696 -0.09880705 -0.069689855 -0.04204384 -0.0051970948 0.1385317 0.3156827 -0.018574625 0.18411742 0.3626172 -0.20078057 0.05359942 0.24551307 -0.1112657 0.0035291251 -0.32355675 -0.04600503 0.4939871 -0.043618944 0.148412 -0.051312715 -0.021093423 0.11424838 0.035113696 0.08722805 -0.17788886 -0.12670591 0.06942444 0.1664315 0.17659973 -0.04326058 0.011069506 -0.13144858 -0.016643824 -0.21267481 0.0031878015 -0.10671723 0.21984369
WAS 0.28049624 -0.10298089 -0.11264362 -0.08528019 -0.03555116 -0.12837246 -0.11237001 -0.16346706 0.18833004 -0.3126548 -0.24938506 0.34680846 -0.11262322 -0.068808064 0.32567006 -0.4460555 0.08148616 -0.15394005 -0.055205278 0.18313198 0.14625391 0.11567884 -0.07273901 0.18965231 -0.048135538 0.020458896 -0.06311006 0.20052749 0.026858345 -0.19105639 0.03143666 0.08497093 0.22647215 0.038684566 0.050139014 0.1516404 -0.03226263 -0.04061521 -0.019342873 0.13267694 0.2264311 -0.162072 -0.04093513 0.21160497 -0.078377955 -0.250432 -0.103674255 -0.036071777 0.08709133 0.13869305 0.061061874 -0.158954 0.3032024 0.08540403 -0.015494774 -0.054512475 0.11576324 -0.058008194 0.33473668 0.36584 -0.17819539 0.17712317 -0.039436813 -0.12571047 -0.055260014 -0.010072786 0.059837103 0.08654417 0.254252 0.006630659 0.17393228 0.2970664 -0.11918925 0.0803649 0.276798 -0.12406417 -0.040627938 -0.26246953 -0.0454419 0.4638161 -0.011952035 0.13968623 -0.05176173 0.007833492 0.06797067 0.05492998 0.07386119 -0.18134117 -0.09466289 0.08416495 0.15272291 0.15597208 -0.08318637 0.031246688 -0.11069107 0.057906855 -0.21965124 0.03889948 -0.11327085 0.20167077
SHOWS 0.2998699 -0.10796458 -0.032564886 -0.0989138 0.0945212 -0.02782558 -0.071351 -0.32810807 0.1666141 -0.32437205 -0.31055775 0.17276418 -0.14522684 -0.2492452 0.37559298 -0.37506235 0.1863547 0.0027123212 0.04829428 0.08141935 -0.004678599 0.21350382 -0.17277803 0.1384107 -0.15161051 0.02691062 0.03125128 0.23868193 -0.037889782 -0.16218019 0.20183511 0.11855758 0.34736672 -0.019580187 0.018856077 0.11410205 0.055323064 -0.009850499 0.14352253 0.18882878 0.38748285 -0.05648708 0.10289289 0.10176479 -0.22329554 -0.3069897 -0.15836164 -0.14116105 -0.06302155 0.08692266 0.09855113 0.040804442 0.37944934 0.21459904 -0.043670103 -0.0026692788 0.0897273 -0.07503526 0.22877628 0.30252606 -0.19491488 0.11191423 0.09418345 -0.24066357 -0.06407281 0.07197652 0.2820112 -0.014921819 0.12613066 0.053826444 0.19802326 0.1750316 0.0022808777 0.20503151 0.43594214 -0.12811027 -0.22119612 -0.16561885 0.008962053 0.49612445 0.09076372 0.090920135 -0.12202113 0.09780013 0.06097001 0.1522722 0.07691874 -0.19559167 -0.031658463 0.15090577 0.10613221 0.11728205 -0.22446764 0.103258595 -0.052003674 0.26368397 -0.21503505 0.15763837 -0.14192857 0.23649481
IT 0.31554648 -0.09881797 -0.054314587 -0.07543151 0.053988975 -0.014934323 -0.07020256 -0.2761621 0.15434153 -0.33886442 -0.30543205 0.2211229 -0.13529149 -0.20137435 0.35022923 -0.38638481 0.17191486 -0.04538917 0.002601107 0.10701607 0.012041139 0.15495454 -0.15576118 0.1551684 -0.14039926 0.024068775 -0.03549621 0.22816537 -0.0060652886 -0.16349627 0.1784102 0.10157517 0.3304475 0.020581918 0.040938336 0.10996493 0.03281802 0.012126818 0.09153035 0.1618531 0.3541704 -0.04659295 0.06370423 0.118100174 -0.19844067 -0.3064435 -0.13046408 -0.1259775 -0.03077174 0.08096623 0.10571223 -0.011673143 0.36328733 0.18869242 -0.053301185 -0.016112674 0.11376135 -0.06256763 0.22590286 0.33359155 -0.2037695 0.12671198 0.04989495 -0.21956329 -0.0634866 0.048203398 0.20068613 0.026550455 0.15418158 0.049127415 0.16833232 0.24154049 -0.06031884 0.16140132 0.39951217 -0.12106771 -0.17458524 -0.17712642 0.037805744 0.4931627 0.045610826 0.12184412 -0.114986494 0.068242334 0.068628855 0.11879927 0.104146026 -0.20890024 -0.05848072 0.13486932 0.11814248 0.12223702 -0.18416506 0.0775359 -0.063455425 0.20450704 -0.22473936 0.15900823 -0.15523608 0.2656627
CAN 0.31010342 -0.14163782 -0.19452496 -0.07575284 -0.16381033 -0.13243867 -0.1225529 -0.08302001 0.19421972 -0.34494066 -0.2330846 0.43418175 -0.104976386 0.06344623 0.39220783 -0.5450466 0.05011326 -0.28223115 -0.16802238 0.2579879 0.26477695 -0.013240231 -0.004253334 0.29044023 0.011980262 0.033658613 -0.2145549 0.17864673 0.13641377 -0.15877472 -0.07098142 -0.002003461 0.14319853 0.10197843 0.04986956 0.1490608 -0.124357566 -0.06364733 -0.11192156 0.09310773 0.1950007 -0.17347154 -0.102053024 0.28446582 -0.05119027 -0.30572745 -0.07606366 -0.0037534772 0.24765916 0.16228135 0.12293297 -0.3240733 0.34113064 -0.03558991 -0.03734325 0.007366358 0.14205663 -0.11019881 0.38711855 0.46764287 -0.18804488 0.18475164 -0.1344389 -0.038929056 -0.0510112 -0.080845565 -0.104933746 0.17145352 0.35994768 -0.07552096 0.16838509 0.48278874 -0.2773457 0.004471775 0.2169578 -0.12228961 0.03674814 -0.3625279 -0.028785108 0.55234015 -0.09756618 0.15975536 -0.013621649 -0.056174587 0.13576756 -0.007253611 0.12622836 -0.18179406 -0.13107955 0.06470798 0.17900982 0.1772218 -0.013119361 0.03185487 -0.1754123 -0.13717583 -0.2413598 -0.018857526 -0.10709996 0.29650393
CHINA 0.25530866 -0.09357786 -0.09023229 -0.08334625 -0.02769352 -0.11171929 -0.096489 -0.16347781 0.1668501 -0.28137696 -0.22516368 0.3148851 -0.10413422 -0.06528749 0.30039838 -0.40769112 0.07686791 -0.13747539 -0.049292725 0.16428901 0.13132946 0.104896106 -0.060222015 0.18109082 -0.04454625 0.020612037 -0.06488301 0.1802934 0.03488154 -0.16554932 0.023782017 0.07982981 0.20440651 0.03145937 0.045135517 0.13940506 -0.03350155 -0.03427667 -0.0070458474 0.119330555 0.20461503 -0.15377629 -0.04311147 0.1949702 -0.066451594 -0.23480341 -0.09611112 -0.027715769 0.08014749 0.12769423 0.061790965 -0.145973 0.2835837 0.07514171 -0.017546417 -0.032812923 0.10489235 -0.052269153 0.3086671 0.3437156 -0.15158972 0.15298404 -0.03589744 -0.122479714 -0.05869209 -0.016448898 0.0548366 0.07845666 0.24085069 0.000902564 0.1539735 0.27616125 -0.12510552 0.060922798 0.2551616 -0.11343518 -0.031713594 -0.24710299 -0.035975244 0.4351838 -0.0030790186 0.11703062 -0.0487517 0.0049371817 0.07290145 0.059099026 0.068152584 -0.16349135 -0.093854554 0.067800984 0.13583279 0.15366064 -0.07552312 0.026927281 -0.09982237 0.04851461 -0.19439867 0.032336585 -0.10382865 0.1886982
AN 0.28865847 -0.11102004 -0.082537346 -0.08648812 -0.0029046393 -0.06283158 -0.0845399 -0.23999867 0.16119151 -0.3251519 -0.2690274 0.2762504 -0.13047647 -0.12991877 0.34730253 -0.41108543 0.14975546 -0.1040536 -0.034632955 0.14086328 0.09158135 0.14827459 -0.109622836 0.18075171 -0.08571253 0.01751596 -0.043477423 0.20857437 0.008187513 -0.16668113 0.09538548 0.103082865 0.27948526 0.01847565 0.04976436 0.11895742 -0.011021184 -0.022462452 0.036175106 0.14675392 0.30577928 -0.111771464 0.0027047864 0.17897251 -0.13279136 -0.27724314 -0.12272705 -0.08382229 0.034811974 0.10077424 0.07956362 -0.092397064 0.35399038 0.12285955 -0.039964106 -0.010969981 0.11826363 -0.069717675 0.28448105 0.3575151 -0.18202563 0.1475874 0.0006567451 -0.18011424 -0.072165735 0.010464376 0.13094972 0.05180233 0.23394355 0.013504196 0.1819028 0.27535313 -0.09460247 0.11770519 0.3319334 -0.120468915 -0.1017273 -0.23447774 -0.014277747 0.49077657 0.029421277 0.11739879 -0.09582418 0.040197726 0.085552365 0.09173472 0.0893483 -0.18827769 -0.0828014 0.09239766 0.1216752 0.15240493 -0.13036028 0.063297845 -0.09246833 0.11813754 -0.21990496 0.08474035 -0.1356346 0.2337323
BEEN 0.36925063 -0.12841704 0.14263527 -0.07839415 0.28917542 0.23279318 0.020201957 -0.6401596 0.11525486 -0.43932462 -0.43819106 -0.06604912 -0.26255903 -0.5635977 0.4510806 -0.2708474 0.44462067 0.278246 0.15737738 -0.04139694 -0.29506496 0.34527364 -0.40421566 0.00129487 -0.42272586 0.09432166 0.14237437 0.28108922 -0.17636636 -0.09803493 0.5621074 0.19150434 0.64900595 -0.06295997 -0.038536742 -0.030686522 0.17729232 0.10758776 0.34812883 0.2304209 0.7599712 0.15740833 0.2915421 -0.09737684 -0.48562154 -0.4454533 -0.21520121 -0.33951348 -0.3784628 -0.03649309 0.19805315 0.3638921 0.551171 0.44256637 -0.189006 0.08485753 0.14075796 -0.04566472 0.026570478 0.22191602 -0.29206657 0.025429927 0.33979386 -0.54356265 -0.11636987 0.19182152 0.62824553 -0.20559646 -0.023145746 0.20329164 0.24154055 0.112722374 0.1682495 0.35376126 0.7076257 -0.11804335 -0.539362 0.007008029 0.14613874 0.60774124 0.25876382 0.057000745 -0.25688127 0.29822513 0.08394905 0.3097133 0.18124317 -0.23614025 0.046164252 0.22220671 0.009577603 0.10787252 -0.47401115 0.19044186 0.032776847 0.60091066 -0.25478068 0.45204204 -0.2700666 0.36422086
DURING 0.26271105 -0.12576497 -0.11980307 -0.10364651 -0.038593262 -0.11757538 -0.11506163 -0.17772798 0.19099233 -0.31141916 -0.22604911 0.33800822 -0.09474367 -0.05073004 0.3291249 -0.4458684 0.0854526 -0.16022256 -0.076777935 0.18422943 0.15512802 0.12469168 -0.08015488 0.18252303 -0.04957588 0.0035532895 -0.06164804 0.21114682 0.044960007 -0.185407 -0.001186469 0.07996542 0.22064498 0.033454847 0.041343845 0.14257868 -0.044858072 -0.023872439 -0.030114856 0.115652665 0.20659979 -0.18674734 -0.048945542 0.22505668 -0.07467962 -0.24453263 -0.10140591 -0.03485354 0.09649642 0.14932066 0.07753721 -0.1690347 0.30382746 0.07769776 -0.002711002 -0.050170492 0.124470666 -0.048246045 0.33649385 0.3740709 -0.15607482 0.1646856 -0.052098107 -0.13298506 -0.05292918 -0.038737897 0.046103075 0.09420696 0.28236002 -0.003694943 0.19443099 0.28014317 -0.12658307 0.05399273 0.28062528 -0.1182405 -0.030416818 -0.29242197 -0.06372783 0.48814976 0.00919886 0.121707454 -0.074432716 0.009146211 0.069446266 0.060674123 0.065691 -0.20148939 -0.11462193 0.05437784 0.1616684 0.14939632 -0.072350554 0.016955143 -0.10527377 0.04743571 -0.20960292 0.021261964 -0.122658454 0.19695702
NOT 0.28995413 -0.1328094 -0.16022807 -0.083693154 -0.10805549 -0.16011329 -0.121249616 -0.120154545 0.19769837 -0.33499226 -0.22917104 0.4067945 -0.121439636 -0.0023902473 0.3485703 -0.5061381 0.057946227 -0.22556615 -0.111778475 0.21164109 0.21297802 0.056355357 -0.030577246 0.2613848 -0.00063781894 0.020955507 -0.13181996 0.19300525 0.08064906 -0.19904435 -0.058275837 0.06633951 0.18546288 0.056777854 0.06006298 0.17780802 -0.06658651 -0.051502395 -0.06858643 0.11814157 0.18994458 -0.2049176 -0.1053749 0.28589827 -0.03569088 -0.27183047 -0.08012831 0.002512105 0.18185356 0.160977 0.0805828 -0.25652823 0.3056578 0.03318987 -0.009112771 -0.041211464 0.13543479 -0.062131267 0.3871067 0.42435062 -0.17170532 0.19441746 -0.10487328 -0.09133634 -0.062893555 -0.04882066 -0.03302291 0.14740466 0.3275973 -0.027627503 0.17494845 0.3943488 -0.21116136 0.044398446 0.22121522 -0.11314487 0.030465756 -0.34090582 -0.056667533 0.51039225 -0.05110197 0.1490414 -0.041400995 -0.04734271 0.124669224 0.017602034 0.090270095 -0.18654042 -0.13770945 0.06114561 0.16907525 0.1862951 -0.03524227 0.012969684 -0.14586927 -0.04676553 -0.23112045 -0.0074324063 -0.10655178 0.22407193
NEW 0.27601677 -0.10428173 -0.12352743 -0.08169846 -0.06496807 -0.12643737 -0.11425651 -0.12511851 0.17984627 -0.2909125 -0.21728344 0.37582597 -0.104332596 -0.020730706 0.31656715 -0.45126307 0.0634648 -0.17688018 -0.08885635 0.20528543 0.18396379 0.07501911 -0.03823814 0.21983016 -0.01006156 0.022940366 -0.09438272 0.18497875 0.058205772 -0.18542135 -0.021123003 0.05197382 0.18869504 0.060535766 0.055892285 0.15059923 -0.05274322 -0.03470323 -0.049667332 0.10433257 0.19223458 -0.17371558 -0.076736845 0.21789849 -0.052731283 -0.256384 -0.0801918 -0.00381055 0.14208448 0.13194586 0.069937654 -0.21307947 0.28838933 0.04118165 -0.015117358 -0.034610182 0.11936238 -0.06352001 0.34975398 0.37522793 -0.16604902 0.17663543 -0.06620466 -0.090277486 -0.054878354 -0.040320188 -0.0113731045 0.11796981 0.29502723 -0.012865837 0.1596415 0.3382614 -0.17417122 0.046096202 0.23831627 -0.11726215 0.0005299926 -0.28440353 -0.04244166 0.46296167 -0.035564274 0.1418863 -0.028823523 -0.011614202 0.08777804 0.019903196 0.079655625 -0.18165232 -0.11978459 0.06424762 0.14505778 0.15864877 -0.04901206 0.014182846 -0.12426391 -0.016936684 -0.19802086 0.0013717264 -0.09997463 0.20241007
LOCKDOWN 0.28300253 -0.114924125 -0.108068526 -0.09941724 -0.01976669 -0.12379096 -0.11502481 -0.17812216 0.17915592 -0.30172917 -0.23852772 0.32800397 -0.10680218 -0.06466336 0.3108928 -0.44224903 0.09331345 -0.16883199 -0.06563863 0.17561619 0.15689223 0.118474476 -0.056096993 0.18101375 -0.04442363 0.012213495 -0.052706823 0.20062515 0.052435733 -0.19967818 0.012741665 0.10023681 0.22589114 0.03098599 0.04642755 0.16111396 -0.022306653 -0.036842335 -0.011380156 0.123938516 0.22161432 -0.18318345 -0.0612799 0.22741339 -0.06392913 -0.24412547 -0.088180274 -0.031498857 0.09861876 0.12651211 0.05419233 -0.16934122 0.30799788 0.07016402 0.0046982006 -0.04728185 0.1097889 -0.06800326 0.3331319 0.36727983 -0.14696178 0.17176591 -0.062702745 -0.12896164 -0.060253616 -0.023150757 0.04490743 0.10227962 0.25852403 -0.0037674345 0.19415338 0.28334534 -0.140663 0.07261965 0.25671074 -0.125191 -0.015546716 -0.27923563 -0.058438063 0.45646203 0.007183481 0.12663494 -0.054858234 0.0049075335 0.0850101 0.06364815 0.06773417 -0.18212359 -0.10182472 0.06576025 0.14193931 0.16468443 -0.072958 0.030808868 -0.09895496 0.029523497 -0.19337533 0.021280905 -0.10579788 0.18663275
WHO 0.26868728 -0.10546519 -0.12817377 -0.08613681 -0.053281136 -0.13909492 -0.11197938 -0.15462483 0.18034948 -0.29325235 -0.22337422 0.3532579 -0.104358174 -0.041866723 0.32838193 -0.4476215 0.069144435 -0.18142566 -0.07384946 0.19002314 0.1588542 0.106611505 -0.04705309 0.21374874 -0.025826426 0.014627816 -0.08194586 0.19012544 0.057226084 -0.18584083 -0.025124358 0.08173928 0.19637085 0.043696146 0.05150634 0.1597712 -0.04736168 -0.04115366 -0.032193005 0.11789083 0.19566017 -0.17845261 -0.07662845 0.25061914 -0.050619524 -0.23278423 -0.0936589 -0.011304336 0.12794697 0.1416697 0.06462292 -0.19613025 0.3012999 0.05667068 0.006606776 -0.049471192 0.109940715 -0.054383684 0.3487488 0.38216358 -0.15292127 0.16407837 -0.06585656 -0.10233568 -0.06221929 -0.025780989 0.03414295 0.10640707 0.2884207 -0.007528802 0.17504358 0.30479938 -0.16019942 0.05868686 0.24629405 -0.11554237 -0.0003281237 -0.29282838 -0.050898418 0.46884838 -0.019662311 0.13136289 -0.043865733 -0.015239022 0.081917 0.039502885 0.06822289 -0.1777444 -0.108824424 0.050539434 0.14906192 0.16801347 -0.04586083 0.017237661 -0.115765534 0.006915992 -0.20114443 0.008705599 -0.10341109 0.20054775
NOVEL 0.25719044 -0.09551384 -0.09109362 -0.07823804 -0.0245287 -0.07999312 -0.09069151 -0.15666878 0.16241696 -0.2832172 -0.2162817 0.307746 -0.109060556 -0.054794524 0.29824677 -0.40713543 0.089414075 -0.12730317 -0.074797615 0.170301 0.13456127 0.085846834 -0.07165215 0.17463122 -0.05666714 0.019009922 -0.08654709 0.18504305 0.04617848 -0.15476659 0.03410987 0.041683324 0.20470902 0.0463637 0.03897357 0.117022485 -0.038781136 -0.01257627 -0.019506093 0.08711464 0.22007819 -0.12551373 -0.03325996 0.16187541 -0.10109992 -0.25790802 -0.093222946 -0.036698535 0.08666008 0.11678664 0.08191399 -0.14370954 0.28399864 0.07345076 -0.02804764 -0.018568534 0.11729209 -0.05666202 0.28219315 0.33396477 -0.15711775 0.1468765 -0.0270852 -0.11837689 -0.04758201 -0.028608095 0.035530172 0.08333225 0.2447898 0.008310155 0.15965538 0.28171852 -0.13901606 0.05170404 0.26009983 -0.11054756 -0.04753619 -0.24454449 -0.021048881 0.42568594 -0.008376507 0.12002128 -0.05661211 0.014237591 0.06182206 0.04174476 0.07516446 -0.1723821 -0.093483135 0.07098327 0.13138102 0.1257313 -0.074746504 0.02379964 -0.1095831 0.037467428 -0.1957648 0.04129917 -0.11436721 0.2032055
GOVERNMENT 0.25809148 -0.11719412 -0.10652366 -0.08176022 -0.034544818 -0.1074813 -0.091835216 -0.15857469 0.15968606 -0.29685837 -0.21988726 0.31337044 -0.10696586 -0.05560513 0.30960742 -0.42033353 0.099172056 -0.14187175 -0.0667122 0.16842529 0.13649163 0.1003064 -0.057642613 0.18414989 -0.043161042 0.006727672 -0.07087067 0.18244791 0.039137065 -0.17258093 0.021432558 0.095576726 0.21467017 0.03460047 0.047918424 0.12763788 -0.034442216 -0.03294312 -0.019838069 0.11578752 0.22257353 -0.14897066 -0.05965084 0.19888718 -0.06703497 -0.23664339 -0.088529244 -0.046119776 0.09355346 0.1189622 0.06540881 -0.15849769 0.29865453 0.075373456 -0.0065033925 -0.038460303 0.118675075 -0.058510944 0.30550802 0.34905946 -0.14947018 0.1641344 -0.044100292 -0.12418608 -0.058859453 -0.023594165 0.050068874 0.08171984 0.25124493 -0.0054737935 0.17630804 0.28774485 -0.13220201 0.063911684 0.23619337 -0.1071894 -0.023626009 -0.24361631 -0.033158243 0.44359726 -0.0047877217 0.12736343 -0.06418174 0.015663536 0.08909517 0.037650824 0.06741745 -0.18237782 -0.09202766 0.06011974 0.13955297 0.14733364 -0.07289477 0.022168236 -0.105484456 0.045240972 -0.189091 0.030238913 -0.114273466 0.1890547
FACEBOOK 0.5557214 -0.14626847 0.22452906 -0.090085156 0.516141 0.43476534 0.06327337 -0.9516794 0.16137163 -0.61817825 -0.67607063 -0.22100143 -0.36296046 -0.89998126 0.6273229 -0.27484533 0.6972519 0.504277 0.29474026 -0.16611584 -0.5485073 0.5075771 -0.6411904 -0.03740676 -0.65372103 0.1166925 0.24834578 0.42127138 -0.28157145 -0.115504906 0.95112413 0.28783008 0.965434 -0.12815426 -0.06177235 -0.096680805 0.31521595 0.16667862 0.592391 0.33937594 1.1661649 0.3590609 0.56373733 -0.2574216 -0.81133777 -0.65484595 -0.35024124 -0.5777612 -0.6477099 -0.09127172 0.3019869 0.6755961 0.7969863 0.7462753 -0.28387782 0.1468325 0.14993341 -0.054410025 -0.12000506 0.2611365 -0.43271974 -0.029788656 0.5750443 -0.803506 -0.12377209 0.32774022 1.0115498 -0.32818866 -0.17125477 0.35251218 0.3400667 0.068423636 0.3220503 0.57532144 1.1006953 -0.14808008 -0.8883292 0.13174294 0.31259993 0.8517882 0.4151646 0.048454758 -0.4250469 0.44008514 0.04305534 0.48946986 0.23849763 -0.35070065 0.12299293 0.3886916 -0.018975582 0.09052661 -0.75688934 0.3086954 0.076547936 1.0149646 -0.3611346 0.7240222 -0.42035198 0.517992
BE 0.26495692 -0.119889736 -0.15096632 -0.07249944 -0.11370111 -0.13800392 -0.111240245 -0.07211916 0.17441377 -0.29862133 -0.18939792 0.37987927 -0.10387319 0.041647784 0.31974575 -0.47419026 0.035955876 -0.23036322 -0.12561753 0.21724017 0.2176138 0.024307262 -0.0012518223 0.2394787 0.0078002983 0.021414177 -0.13836294 0.18050928 0.08986962 -0.1631396 -0.052510586 0.041126005 0.15469924 0.06241588 0.066732325 0.15318781 -0.08735984 -0.049371995 -0.07464748 0.0860738 0.15119705 -0.17514543 -0.110820934 0.26255953 -0.030042194 -0.2446027 -0.07719866 0.008052714 0.1884811 0.14696746 0.070535555 -0.26975146 0.2850846 0.0071329875 -0.003413802 -0.023262193 0.12487924 -0.057756744 0.34971333 0.40189835 -0.15086353 0.18191083 -0.11921118 -0.060693856 -0.055317484 -0.069025464 -0.06442675 0.13556045 0.32398707 -0.038395613 0.15893008 0.3776056 -0.2294765 0.016790686 0.18287517 -0.10985062 0.05271398 -0.3220151 -0.04443721 0.45841917 -0.07522973 0.13273096 -0.030499661 -0.052694786 0.10397265 -0.0076127937 0.08562589 -0.16373497 -0.1317223 0.04638642 0.16917287 0.16938809 -0.016888537 0.008626419 -0.13907239 -0.073588364 -0.2107947 -0.030057847 -0.084163375 0.2076843
PANDEMIC 0.25075868 -0.087979615 -0.107144356 -0.07852585 -0.052137222 -0.12409291 -0.10620322 -0.12353484 0.16258541 -0.26000214 -0.19995469 0.32777303 -0.087502606 -0.018283205 0.280107 -0.4042179 0.06222467 -0.17186897 -0.07428405 0.18590838 0.15609954 0.07900688 -0.031734005 0.17986813 -0.017169904 0.011295817 -0.08463869 0.17694066 0.055887353 -0.18174371 -0.009901661 0.063546 0.18030435 0.048387762 0.053000167 0.15114638 -0.042756654 -0.032248 -0.047139414 0.09481723 0.16753632 -0.17469561 -0.066501215 0.20087315 -0.04106622 -0.21404627 -0.08535262 -0.0037002019 0.12263215 0.12881869 0.048495237 -0.18206081 0.2638034 0.04133191 0.007867465 -0.045117706 0.10178964 -0.05046259 0.31947514 0.34574068 -0.13975443 0.16848098 -0.062861234 -0.09746951 -0.044670347 -0.041541047 0.005311115 0.10081412 0.26068828 -0.016657175 0.1562931 0.27486974 -0.14777172 0.053777613 0.21040784 -0.10356504 -0.0019120509 -0.2506901 -0.048099168 0.41569522 -0.025825776 0.12660128 -0.040327474 -0.0065453695 0.072538994 0.029329326 0.060371246 -0.16287807 -0.0960099 0.06281796 0.14400293 0.14133982 -0.048113577 0.013819445 -0.10560346 -0.0015717653 -0.1784384 0.006813258 -0.0960495 0.16691513
INDIA 0.25526375 -0.117055275 -0.0963067 -0.08990487 -0.024303662 -0.09948609 -0.094458774 -0.1701032 0.1687782 -0.28614935 -0.22517808 0.290816 -0.106584184 -0.06615001 0.30028352 -0.3978958 0.101247445 -0.13729922 -0.058462676 0.16349249 0.12589163 0.111517936 -0.071799286 0.17012142 -0.057255354 0.0060253227 -0.05395932 0.18387362 0.039621275 -0.1649509 0.026936488 0.081464484 0.22994813 0.021140879 0.04052785 0.1274541 -0.02952013 -0.028595336 -0.007162671 0.116729766 0.22346857 -0.15670389 -0.03988929 0.20542082 -0.08323963 -0.24044116 -0.089328505 -0.047240905 0.081205 0.12777066 0.06957061 -0.13413359 0.2916553 0.084477626 -0.020050095 -0.0310805 0.109972335 -0.049715757 0.2956043 0.3477746 -0.14872758 0.1445992 -0.040740952 -0.13424806 -0.061920542 -0.023092031 0.071317814 0.07457394 0.24490498 0.0046962104 0.171026 0.26640472 -0.11250372 0.0693199 0.27023748 -0.114404604 -0.04794839 -0.24999441 -0.039295267 0.44834942 0.012900794 0.11468129 -0.06553318 0.008052857 0.07853626 0.0660548 0.065579556 -0.18003908 -0.09358155 0.058968622 0.1353079 0.15854174 -0.07836754 0.036526013 -0.08721899 0.049576808 -0.20074014 0.042372838 -0.10894765 0.18533301
INFECTED 0.25988486 -0.113133475 -0.12169832 -0.07419638 -0.08392907 -0.12781805 -0.104239196 -0.13715404 0.17217264 -0.28973344 -0.2011246 0.3382924 -0.10546931 -0.015778806 0.3201432 -0.4387908 0.055129588 -0.16620159 -0.07813258 0.17861786 0.1674716 0.061938316 -0.025108367 0.22732492 -0.010910725 0.017262949 -0.09244941 0.17991377 0.05571834 -0.1504023 -0.010453949 0.05235495 0.17691383 0.048427414 0.040947862 0.1361795 -0.049262777 -0.05065862 -0.025185853 0.108298935 0.18164851 -0.14971551 -0.059653535 0.23943044 -0.04438915 -0.23991919 -0.08962513 -0.010277221 0.13730304 0.12434662 0.06480259 -0.20194468 0.28419906 0.031293742 -0.010522524 -0.016851762 0.1095228 -0.061568458 0.33882472 0.36819044 -0.16100293 0.15827361 -0.06710761 -0.08635076 -0.06720135 -0.026472436 -0.0013797298 0.11869944 0.28283894 -0.024530703 0.14535873 0.32334453 -0.16108108 0.046960685 0.23436727 -0.10051335 -0.01046251 -0.28355044 -0.03767991 0.45220065 -0.038805753 0.123701796 -0.035102654 -0.024664175 0.098884396 0.03228758 0.08379264 -0.15456103 -0.10694073 0.06382549 0.13921753 0.14949697 -0.051780313 0.027388554 -0.115226805 -0.014351132 -0.18664582 0.0040664384 -0.09873282 0.19894454
CLAIM 0.36870652 -0.08372197 0.055544835 -0.07453885 0.24070145 0.16975187 -0.008768225 -0.5157285 0.13549562 -0.4065078 -0.43379688 0.026770653 -0.19923331 -0.4648484 0.41626063 -0.28231683 0.3588407 0.17540306 0.13247909 -0.007902388 -0.21095142 0.2695405 -0.33290786 0.042029195 -0.33469364 0.04111855 0.08178821 0.28147137 -0.11793321 -0.12878563 0.46469262 0.16824976 0.54084265 -0.03913159 0.010235816 0.023796696 0.14396343 0.071296304 0.28682724 0.21794204 0.61315674 0.12070138 0.2565907 -0.032799155 -0.4135805 -0.39653674 -0.20988436 -0.27956715 -0.2738576 0.007404501 0.1621823 0.26897642 0.48624486 0.38559145 -0.12537786 0.022425612 0.1180933 -0.041924715 0.06214844 0.25133434 -0.27003297 0.049535923 0.24581572 -0.41952187 -0.064105175 0.15715551 0.50421256 -0.11239486 -0.0012222134 0.16265354 0.21966256 0.12064562 0.09923149 0.32133085 0.6389195 -0.12658955 -0.4336916 -0.026433036 0.12662211 0.5700611 0.18098776 0.07949972 -0.21688451 0.20280527 0.03657246 0.25720763 0.14674269 -0.23856847 0.02672803 0.2334135 0.06290219 0.09267684 -0.39553294 0.15986264 0.0030312552 0.51643854 -0.2596966 0.36173275 -0.24030119 0.32102758
THIS 0.2864557 -0.11466221 -0.11802853 -0.09192285 -0.046859402 -0.12628788 -0.10406795 -0.1781926 0.18273464 -0.32799467 -0.251172 0.34712607 -0.12283579 -0.07107001 0.3550986 -0.470501 0.09588918 -0.17320344 -0.058279008 0.18676333 0.16164558 0.11669962 -0.07584324 0.21795945 -0.035326257 0.024281938 -0.07539854 0.21118931 0.04928277 -0.19207034 0.01637659 0.08230662 0.2234356 0.03776213 0.05602666 0.16366664 -0.041499894 -0.04150853 -0.015568367 0.13102512 0.24437015 -0.16862321 -0.04882646 0.22614893 -0.082997516 -0.27658296 -0.10846162 -0.03648847 0.114802405 0.14387831 0.07840238 -0.18013634 0.33155498 0.08243928 -0.01137394 -0.027946161 0.119122244 -0.06522234 0.3465264 0.39241555 -0.17771538 0.17447264 -0.049041454 -0.13089238 -0.05899298 -0.022831237 0.059956 0.09478408 0.28206438 -0.0071107517 0.1838202 0.32167757 -0.1492951 0.083251394 0.2870859 -0.12217158 -0.036340263 -0.28726462 -0.039082274 0.49990228 -0.0047367546 0.14039996 -0.058939237 0.005034996 0.09530479 0.06386939 0.07787424 -0.192814 -0.10344905 0.0793768 0.15655084 0.16915064 -0.085038364 0.035311494 -0.112671874 0.036044948 -0.2217121 0.02808699 -0.11122821 0.22613832
AT 0.28228348 -0.122259185 -0.11809284 -0.0922662 -0.042067766 -0.11163277 -0.103138864 -0.18222241 0.17029725 -0.31759912 -0.24436949 0.32927352 -0.1167993 -0.071227774 0.32939565 -0.4443006 0.09612145 -0.16305117 -0.058597147 0.17223343 0.14470656 0.11463664 -0.07539751 0.20283753 -0.0440677 0.013792053 -0.07725105 0.19411953 0.043118346 -0.18837981 0.013583373 0.0941351 0.23319556 0.03454838 0.057878476 0.155332 -0.033267483 -0.03334109 -0.0027525257 0.13362652 0.23551062 -0.16609031 -0.046076916 0.2321215 -0.07819176 -0.2620721 -0.097603016 -0.04668834 0.10534303 0.1318719 0.073261194 -0.17032333 0.32507795 0.08126822 -0.015160545 -0.032655254 0.11383699 -0.059665516 0.33809438 0.3837916 -0.16499391 0.17208557 -0.049996834 -0.12819396 -0.06659007 -0.016454538 0.05391028 0.09663668 0.2731817 -0.006626244 0.17661309 0.30246338 -0.13680735 0.067029685 0.2755161 -0.12638503 -0.031311218 -0.28080854 -0.05070586 0.48153707 -0.006256839 0.12642749 -0.062210698 -0.0028346265 0.088952 0.058167573 0.078096084 -0.18290831 -0.10728857 0.0654956 0.14765394 0.16506286 -0.07744792 0.030823417 -0.10145378 0.043981746 -0.20318456 0.038563564 -0.12394451 0.2154272
PRESIDENT 0.3010358 -0.12057485 -0.10851136 -0.10414717 -0.026348693 -0.11306747 -0.10060941 -0.19954799 0.18120357 -0.32381243 -0.25644577 0.34623596 -0.13585778 -0.089323044 0.35245198 -0.46272838 0.116110906 -0.13327822 -0.06085104 0.18760794 0.1378985 0.1189425 -0.080185026 0.18791106 -0.042656034 0.015908131 -0.08303044 0.21464051 0.023626434 -0.20515853 0.044481486 0.117872946 0.25173274 0.04761764 0.070719376 0.14018844 -0.032302383 -0.024440859 -0.013209322 0.14769371 0.27365553 -0.15835209 -0.04644135 0.21709947 -0.09342441 -0.27973512 -0.118934646 -0.06344117 0.08550313 0.13137493 0.07878128 -0.15543109 0.3467945 0.091483526 -0.016095027 -0.04434487 0.14436753 -0.059507173 0.34828937 0.4021581 -0.17565261 0.18281887 -0.025981065 -0.1486916 -0.07723398 -0.008058726 0.077327065 0.070912994 0.27980712 0.0077308174 0.19466631 0.31702656 -0.1322092 0.1113534 0.29950416 -0.11998861 -0.06037089 -0.261096 -0.0327147 0.50119334 -0.012836335 0.14727579 -0.07417064 0.016398054 0.10094274 0.049372166 0.08236712 -0.21524116 -0.09546284 0.09106423 0.1516339 0.1678607 -0.09059001 0.04550169 -0.10192272 0.069783725 -0.23916689 0.054874144 -0.14871447 0.22293042
AGAINST 0.27397195 -0.10744419 -0.11717893 -0.08528767 -0.07177111 -0.11371102 -0.10732644 -0.13928945 0.16519225 -0.2940356 -0.21777761 0.34437546 -0.10244648 -0.03690153 0.3292916 -0.4403716 0.080972895 -0.1700899 -0.09010719 0.19066565 0.16589025 0.092992544 -0.05291027 0.20758697 -0.026003877 0.016133685 -0.09453699 0.18423076 0.054112375 -0.18130098 0.010451496 0.069151565 0.20686509 0.056510366 0.058952212 0.14367121 -0.048331168 -0.029874649 -0.041367557 0.10607288 0.211225 -0.16003042 -0.06418382 0.22488499 -0.06943766 -0.26496017 -0.09380303 -0.024056796 0.12279864 0.12739864 0.07599985 -0.19195294 0.30708474 0.049315605 -0.009827846 -0.03016893 0.12113493 -0.061547436 0.3351207 0.37410647 -0.1645799 0.16655754 -0.057889458 -0.1077792 -0.06551896 -0.029731011 0.014094622 0.09846228 0.28639123 -0.020599516 0.1609954 0.32654935 -0.16585451 0.05197957 0.25744873 -0.10697796 -0.020845091 -0.2780111 -0.042357482 0.47612697 -0.02998563 0.13313054 -0.050364796 -0.010571289 0.09053248 0.027979791 0.08558248 -0.17733873 -0.10471673 0.06854002 0.14783096 0.15891089 -0.063567705 0.028235622 -0.119315445 0.011241141 -0.21173275 0.02535161 -0.118151024 0.21696988
PHOTO 0.26412526 -0.09497585 -0.056407247 -0.08472971 0.032552645 -0.044188816 -0.073496014 -0.2552601 0.14551957 -0.30753416 -0.26803088 0.22576639 -0.12480696 -0.16898416 0.3307805 -0.3629752 0.15414427 -0.06802183 0.004169989 0.113782994 0.046538267 0.1607002 -0.12757015 0.13832782 -0.109550394 0.013718592 -0.023014063 0.20975655 -0.0031156023 -0.15770344 0.1195937 0.110746145 0.29103985 0.004996076 0.040894352 0.1130383 0.017317142 -0.012204618 0.06772332 0.14830136 0.3063771 -0.086718194 0.030510595 0.15430668 -0.1396644 -0.2608777 -0.12963511 -0.10037506 0.0029340321 0.09094148 0.08585992 -0.036205217 0.33484936 0.14118792 -0.038434 -0.02049911 0.10550797 -0.055650502 0.2628262 0.31365478 -0.17160337 0.12153949 0.028349299 -0.1886911 -0.066133834 0.025203649 0.17056704 0.030999718 0.18714623 0.03167145 0.17956193 0.23231699 -0.06459442 0.1303717 0.35164937 -0.1168206 -0.13096987 -0.20366208 -0.015862493 0.4768144 0.04615997 0.09438399 -0.093909085 0.05436677 0.07638218 0.118196875 0.07628905 -0.17946577 -0.059834994 0.091047704 0.11147676 0.14242809 -0.14791572 0.066166885 -0.059304416 0.14933403 -0.20293528 0.09758889 -0.1411307 0.22471349
AFTER 0.29714686 -0.11968116 -0.12858856 -0.0897385 -0.057531916 -0.13914141 -0.124255046 -0.17423394 0.18521416 -0.32625732 -0.24243115 0.37353918 -0.11791404 -0.04963979 0.35037968 -0.4810593 0.0879161 -0.176437 -0.073028155 0.1950382 0.17588353 0.12142452 -0.053343896 0.22034128 -0.034309775 0.015746735 -0.077672385 0.20325457 0.05239233 -0.20114611 -0.014010733 0.088339075 0.23087452 0.054361217 0.053608257 0.15896079 -0.039427873 -0.04401973 -0.025911657 0.12866983 0.2268251 -0.19141397 -0.06698004 0.2592135 -0.060426973 -0.26068264 -0.10401534 -0.033159282 0.11571865 0.14332564 0.070962384 -0.19097835 0.31627998 0.069169596 0.00077690574 -0.047895912 0.12601776 -0.059945274 0.36574268 0.40452904 -0.17349769 0.1778534 -0.05681813 -0.11922558 -0.07384527 -0.024566187 0.045910396 0.11022348 0.3032336 -0.016480604 0.18387651 0.3238506 -0.16253945 0.06951686 0.27844316 -0.12809142 -0.020659832 -0.31536177 -0.05567936 0.50865453 -0.022773275 0.13536055 -0.060830306 -0.002823514 0.096212596 0.056836143 0.08247934 -0.19226798 -0.107784756 0.07260556 0.16956335 0.17184563 -0.064568676 0.028239772 -0.12787484 0.030249901 -0.22283573 0.015989507 -0.119100444 0.20965223
SHARED 0.44491822 -0.12210615 0.2084094 -0.0775266 0.42767382 0.34568658 0.069783606 -0.81913686 0.12216653 -0.5121685 -0.5530904 -0.18488495 -0.2982146 -0.76232237 0.5453774 -0.22287269 0.5829727 0.41376653 0.24398619 -0.12869194 -0.45849913 0.4358734 -0.5269119 -0.038967818 -0.5550365 0.08290176 0.21627271 0.3511336 -0.23749869 -0.06962267 0.7789147 0.23732251 0.81822354 -0.11291926 -0.054446552 -0.08246668 0.2500764 0.13662575 0.4929115 0.27693805 0.98385614 0.29390615 0.44350904 -0.19875464 -0.6631624 -0.5177047 -0.27721906 -0.48655427 -0.5363042 -0.08282123 0.24125318 0.57127136 0.6799215 0.60377014 -0.23766108 0.12744176 0.13690203 -0.04015337 -0.07713839 0.20965116 -0.34801123 -0.022299096 0.48895237 -0.6769855 -0.11852312 0.28697786 0.8496806 -0.2881556 -0.11038965 0.2738053 0.27879792 0.05364398 0.2729985 0.47726536 0.8960702 -0.13344616 -0.737116 0.12357549 0.23818894 0.7064488 0.35326153 0.052410323 -0.36354545 0.39036137 0.06267597 0.41085753 0.2145567 -0.28543022 0.09715264 0.29755372 -0.016124671 0.087048315 -0.63155144 0.25841394 0.07573493 0.82530296 -0.3117285 0.5953272 -0.3523616 0.42447156
HOSPITAL 0.2732544 -0.114034034 -0.09723435 -0.09531547 -0.014640518 -0.09440654 -0.10055378 -0.19577803 0.16793542 -0.3125261 -0.24589945 0.29500195 -0.12155442 -0.09350242 0.33214468 -0.42079365 0.11200762 -0.114118785 -0.04297546 0.1496704 0.116010256 0.11864874 -0.08036572 0.19436985 -0.07113717 0.023552902 -0.05456059 0.19067146 0.021374032 -0.16549571 0.05829089 0.08947193 0.2452347 0.029896472 0.0383586 0.12904996 -0.025259927 -0.03623066 0.018916927 0.13117509 0.25453937 -0.13322422 -0.0069416324 0.19379452 -0.09929045 -0.2638625 -0.102124386 -0.05410861 0.060417123 0.11586545 0.06943807 -0.11865532 0.3236407 0.09770338 -0.031717397 -0.024201626 0.10855023 -0.06724378 0.3022416 0.34914565 -0.17675416 0.15208901 -0.015489516 -0.14874674 -0.059896674 0.0028988684 0.08884412 0.07186143 0.24103989 0.004461704 0.173798 0.2843696 -0.11242824 0.0932679 0.2993621 -0.11425442 -0.07863783 -0.24086025 -0.039135896 0.46901095 0.011644629 0.11814836 -0.07087406 0.015488957 0.0790769 0.08299199 0.08383284 -0.17357771 -0.09050283 0.08112946 0.12627973 0.16097893 -0.09418646 0.046779394 -0.096806385 0.070698224 -0.21541253 0.054483682 -0.114395656 0.20825313
HAVE 0.30774263 -0.11605929 -0.0780258 -0.08810084 -0.0055183796 -0.060231656 -0.08943378 -0.24520554 0.17208572 -0.33812726 -0.273563 0.2785894 -0.14282739 -0.1413942 0.36751914 -0.42489514 0.14917193 -0.1019596 -0.04555408 0.14297925 0.07506769 0.13655329 -0.12105435 0.18727937 -0.10540222 0.025075728 -0.048303485 0.21566848 0.02030818 -0.17741999 0.092333555 0.09996245 0.29171157 0.03453459 0.032385077 0.12109324 -0.0076404526 -0.020066643 0.03178915 0.14084439 0.3230444 -0.10906076 0.0042770365 0.18825088 -0.15385436 -0.29100072 -0.11495354 -0.093974054 0.038582984 0.11038689 0.10425027 -0.0846827 0.35869977 0.13907078 -0.04423799 -0.014195066 0.13304698 -0.053490113 0.28572986 0.3644212 -0.19038108 0.14228734 0.02153216 -0.18951501 -0.07987278 0.017445235 0.14120728 0.058687337 0.23729768 0.034969788 0.18682247 0.30779767 -0.10743471 0.106119506 0.3444321 -0.111466244 -0.10835469 -0.2422574 -0.0085723745 0.5196219 0.020341828 0.1250564 -0.10204506 0.042666923 0.10404222 0.09341708 0.1014606 -0.19170922 -0.085430056 0.09427542 0.13546452 0.16053176 -0.13073002 0.056123387 -0.09526067 0.10950013 -0.23212975 0.09186405 -0.13812672 0.2557841
VACCINE 0.25017548 -0.10518451 -0.099150285 -0.08676796 -0.027641285 -0.105232075 -0.09628113 -0.15080188 0.15887359 -0.29013282 -0.23238215 0.3175398 -0.10644961 -0.061329313 0.31766728 -0.4164408 0.08749887 -0.13057664 -0.053472582 0.17356901 0.12969968 0.1018827 -0.06335528 0.18808797 -0.045011476 0.025113724 -0.071179375 0.18531844 0.025633285 -0.17778763 0.020263465 0.06996319 0.2045229 0.03358761 0.05750202 0.13280925 -0.032070167 -0.036395058 -0.013530895 0.10838884 0.2100364 -0.15040644 -0.05000241 0.201634 -0.08237632 -0.25287533 -0.09622902 -0.032516077 0.08258394 0.12542737 0.07246936 -0.13971353 0.30220437 0.064592555 -0.01410338 -0.029944593 0.11109692 -0.054980323 0.3092933 0.3442427 -0.16218205 0.14717783 -0.023901958 -0.12599117 -0.06066673 -0.0010475644 0.055147167 0.06889952 0.24348246 0.00010948448 0.15095809 0.3003625 -0.120711505 0.073222116 0.26139987 -0.10079691 -0.043398365 -0.24804537 -0.036181007 0.43783346 -0.018419972 0.11695675 -0.045886252 -0.0058831447 0.079793975 0.050381187 0.070845544 -0.166569 -0.08760621 0.06411916 0.13218473 0.15506996 -0.07269266 0.0415056 -0.11020286 0.039324924 -0.20394807 0.042023893 -0.11163992 0.21317463
DUE 0.2521053 -0.11224005 -0.11273432 -0.09022048 -0.052152503 -0.12933202 -0.113742836 -0.12760454 0.18300349 -0.28614694 -0.20854312 0.36142072 -0.10389417 -0.013978062 0.31446224 -0.43900114 0.07118963 -0.18465975 -0.08569186 0.20014861 0.17339286 0.09484223 -0.04746952 0.20263225 -0.015141867 0.009770668 -0.074059404 0.19282894 0.05869387 -0.18580213 -0.035088297 0.074496225 0.19334027 0.04941071 0.05275087 0.15073992 -0.0556831 -0.034814946 -0.051415533 0.105696365 0.1695055 -0.20345594 -0.09137087 0.25249025 -0.035776816 -0.22474222 -0.08350842 -0.016334822 0.1315191 0.14507593 0.050478186 -0.21521445 0.28926164 0.058367245 0.0039712093 -0.04868053 0.11448335 -0.045156304 0.34197944 0.3813548 -0.145984 0.17203847 -0.07381486 -0.10076645 -0.060315114 -0.057429373 0.01056454 0.112645686 0.3012654 -0.006057367 0.18196651 0.29593587 -0.169893 0.024902841 0.22300254 -0.12208276 0.019205408 -0.3073431 -0.07538066 0.45983133 -0.026683355 0.13038994 -0.0519921 -0.008852654 0.07775756 0.03604925 0.06663456 -0.19001836 -0.12620173 0.033509623 0.16368334 0.16931324 -0.0337394 0.004955975 -0.12187426 -0.002176299 -0.19332513 -0.016027573 -0.111651205 0.1725234
CHINESE 0.28169394 -0.10423881 -0.10037959 -0.081954546 -0.03783599 -0.11085867 -0.10119857 -0.17415455 0.16904888 -0.31434596 -0.23682596 0.33518833 -0.10980559 -0.0655982 0.3331675 -0.44002053 0.0913421 -0.1548358 -0.05615416 0.18065478 0.14448056 0.11106198 -0.06503863 0.19790143 -0.03868818 0.024770046 -0.07590947 0.20060255 0.034759965 -0.18426307 0.02444395 0.08042786 0.22791842 0.045609385 0.05690725 0.14850125 -0.034203067 -0.04137873 -0.012385815 0.13125645 0.22675855 -0.14811501 -0.048287194 0.21052922 -0.07704294 -0.25138235 -0.09986317 -0.032791432 0.0962079 0.12934919 0.072037876 -0.1620166 0.31175497 0.08099917 -0.009676434 -0.038363006 0.1178893 -0.06483156 0.3250468 0.37149456 -0.16748336 0.16209581 -0.03959117 -0.13081291 -0.066763945 -0.019274447 0.0604101 0.08196094 0.2650027 -0.0026303302 0.16415985 0.30178848 -0.14003874 0.07847693 0.27263096 -0.113667086 -0.039557185 -0.25781682 -0.030877363 0.46960753 -0.0143563505 0.12852307 -0.06176423 3.3958248e-05 0.089023344 0.05327266 0.08080494 -0.18128785 -0.099131435 0.073802456 0.14612207 0.16716464 -0.084937155 0.027237957 -0.10036212 0.045740098 -0.21213976 0.037519723 -0.117740415 0.21870767
VIRUS 0.27904725 -0.11738 -0.14140154 -0.087282486 -0.089628 -0.13753812 -0.114882335 -0.112782486 0.18293825 -0.29948202 -0.22229102 0.37987795 -0.11182993 -0.003289971 0.3210134 -0.47502285 0.051825657 -0.20505479 -0.10636535 0.20729645 0.18857545 0.06032872 -0.032363545 0.2313904 -0.0018877019 0.024141999 -0.11580148 0.17562523 0.08055528 -0.18158597 -0.027669955 0.04632002 0.17301247 0.064603835 0.05490657 0.15700622 -0.061963934 -0.051219262 -0.059217576 0.101400584 0.195252 -0.17031184 -0.08955455 0.24300553 -0.045903202 -0.24656172 -0.078695305 -0.012175369 0.16434757 0.14218444 0.082804546 -0.22979261 0.28705898 0.021239137 -0.010988975 -0.028630726 0.11899837 -0.06497624 0.3516369 0.39041933 -0.16460311 0.1769228 -0.0805432 -0.07658226 -0.057898086 -0.038492914 -0.021456247 0.124865234 0.28932023 -0.02749888 0.15771066 0.35536087 -0.18658124 0.04575846 0.21811585 -0.113645166 0.015477809 -0.28998047 -0.04199571 0.4672714 -0.04846716 0.14159153 -0.024135737 -0.033370458 0.09602435 0.020798538 0.077107705 -0.17176773 -0.119723 0.06301069 0.15615265 0.15788119 -0.042023808 0.020581093 -0.13493402 -0.03383959 -0.2061684 -0.008281776 -0.08911228 0.21166247
CLAIMS 0.3033224 -0.10282612 -0.021851512 -0.07473789 0.080170095 0.015876558 -0.05727584 -0.3334604 0.14490329 -0.35105786 -0.31747508 0.17434219 -0.1612505 -0.24663259 0.3813002 -0.36188203 0.22031493 0.00467007 0.0272578 0.080600455 -0.016777243 0.184287 -0.18419182 0.12692066 -0.1685766 0.03650964 -0.00015631455 0.2374616 -0.04213092 -0.14733294 0.22123921 0.124304846 0.36628962 0.0025964698 0.03031813 0.07294501 0.035980664 0.01708214 0.12342785 0.165393 0.4143374 -0.027036011 0.09085655 0.091288164 -0.2343019 -0.3180822 -0.14932571 -0.15956657 -0.07909944 0.06022789 0.10610824 0.04107826 0.38701883 0.22335605 -0.06639958 0.009648059 0.12558895 -0.050617896 0.1921423 0.3085385 -0.20271695 0.10745989 0.09820378 -0.27140734 -0.06914115 0.056393612 0.26677665 -0.01782487 0.14564069 0.06463673 0.18506497 0.22833607 -0.021156546 0.19258095 0.4266214 -0.11866764 -0.22385572 -0.14762609 0.0414028 0.5113061 0.092161216 0.10654377 -0.13578762 0.10038871 0.084401906 0.1351282 0.10883191 -0.19833921 -0.033518665 0.14710997 0.088331215 0.13106392 -0.23525028 0.093481086 -0.05801369 0.2532985 -0.2296984 0.18947305 -0.17719504 0.2721549
OUTBREAK 0.2558674 -0.094543986 -0.10649347 -0.08520289 -0.04518465 -0.11748346 -0.101914495 -0.13240549 0.16881666 -0.2748353 -0.20548148 0.33447114 -0.10080576 -0.029433763 0.28839967 -0.4117441 0.062053885 -0.1630289 -0.075104736 0.1809445 0.15475747 0.0881286 -0.04550557 0.18822883 -0.013085166 0.017825577 -0.07815769 0.18019588 0.053495247 -0.17869014 -0.003783802 0.0631602 0.18247174 0.046289295 0.046818033 0.1506342 -0.046428423 -0.029691987 -0.03911463 0.10300921 0.18118629 -0.1719981 -0.066760086 0.20572425 -0.052463967 -0.2322065 -0.08394791 -0.006862174 0.1185768 0.13525261 0.057166368 -0.18345408 0.27711543 0.051155362 0.004644291 -0.043250628 0.11138594 -0.056639764 0.32242146 0.3485806 -0.14518349 0.17169255 -0.05501979 -0.09587783 -0.058024753 -0.0320101 0.007284289 0.09242891 0.27151826 -0.009442789 0.15429734 0.28406715 -0.14970829 0.046447154 0.2272317 -0.1121423 -0.002840783 -0.2606665 -0.054438435 0.42649713 -0.026739137 0.13121851 -0.03334519 -0.008380909 0.08023575 0.03578164 0.06751777 -0.16787557 -0.10270533 0.05096533 0.14232738 0.15192029 -0.05480488 0.016031725 -0.10620542 0.011500197 -0.17902614 0.007090209 -0.09698258 0.1720304
CURE 0.2654323 -0.11616985 -0.1396735 -0.0881252 -0.11123953 -0.11009185 -0.10449289 -0.07347764 0.16972202 -0.29844862 -0.20482935 0.3571173 -0.101739705 0.033819333 0.32434443 -0.46251395 0.042705532 -0.2061545 -0.11949376 0.21513958 0.19485682 0.016372614 -0.01116335 0.22789587 -0.010119047 0.032120153 -0.1486642 0.17836612 0.0820938 -0.15547413 -0.025933405 0.010606634 0.16169868 0.066785075 0.06553013 0.13432108 -0.08074245 -0.044625394 -0.05254101 0.07466753 0.17206766 -0.15705329 -0.0795529 0.23255886 -0.050682373 -0.25785068 -0.08729324 0.0033434585 0.17516379 0.13511598 0.079642415 -0.23925999 0.2954022 -0.0036030512 -0.020237295 -0.0020461308 0.11748254 -0.06866946 0.32558355 0.3880519 -0.165449 0.16021629 -0.091959536 -0.0634389 -0.05524994 -0.051729836 -0.061109543 0.1253752 0.3071285 -0.04370381 0.15497127 0.38442808 -0.2213221 0.032725643 0.21752225 -0.10432172 0.022016818 -0.30284578 -0.03349841 0.45887628 -0.06787093 0.13204668 -0.017264655 -0.049388047 0.099336 -0.0007969573 0.08866011 -0.16161679 -0.1056744 0.06987624 0.15605168 0.15847397 -0.025716344 0.03567107 -0.14575936 -0.06946 -0.21137115 -0.016188579 -0.0816334 0.23165222
OR 0.29367346 -0.12698609 -0.15530673 -0.08377335 -0.118768804 -0.12546708 -0.1110961 -0.0959488 0.18136236 -0.32826686 -0.21418925 0.39954308 -0.118774325 0.03609676 0.35956097 -0.5008027 0.057922065 -0.22490491 -0.13111438 0.229357 0.21559311 0.016783323 -0.016202418 0.26880252 -0.004271652 0.030120289 -0.17066504 0.19031817 0.102722205 -0.16652544 -0.04057828 0.018263388 0.16756257 0.07877032 0.05894064 0.15570617 -0.08412427 -0.053426318 -0.06838734 0.10459458 0.19571277 -0.17235185 -0.09838911 0.26386002 -0.053528726 -0.285423 -0.08165017 -0.011291854 0.18969277 0.14967407 0.10067071 -0.2784278 0.31608206 -0.0012652782 -0.025768349 -0.004895264 0.13460931 -0.0882761 0.35457304 0.43639016 -0.17264308 0.17495759 -0.10313733 -0.066969156 -0.056404497 -0.057822376 -0.061823435 0.14517374 0.33328253 -0.051623903 0.17231432 0.41720748 -0.2422304 0.029579373 0.2223458 -0.10805079 0.024250882 -0.33613166 -0.03956625 0.5007639 -0.064880274 0.1478278 -0.029306196 -0.045384176 0.12922968 0.0034629463 0.109042205 -0.19019017 -0.1324644 0.060874347 0.16499077 0.16719745 -0.035084326 0.023565212 -0.14112327 -0.0834912 -0.2285927 -0.021823201 -0.10246897 0.25757545
PATIENTS 0.2811307 -0.12073959 -0.12582423 -0.08570396 -0.06971887 -0.12519166 -0.11812259 -0.14419316 0.17704688 -0.30362275 -0.22753611 0.36731634 -0.11308228 -0.024716394 0.32948112 -0.46161926 0.06546538 -0.18852894 -0.08665128 0.20275603 0.17430751 0.084300965 -0.03680535 0.23021825 -0.029121967 0.0152629055 -0.09590451 0.19196807 0.052480105 -0.18210699 -0.015983291 0.07311736 0.20113221 0.052012835 0.04634241 0.15315041 -0.04803781 -0.043155685 -0.039708436 0.10786933 0.20120594 -0.1726924 -0.06730109 0.2512577 -0.05389329 -0.26286098 -0.08948941 -0.018334165 0.14024955 0.14450726 0.06167554 -0.2097549 0.31057414 0.054608516 -0.01120543 -0.028496705 0.12863326 -0.060122255 0.36153436 0.39135772 -0.1596925 0.17000906 -0.07323369 -0.105620414 -0.064514495 -0.033987477 0.012954642 0.112689465 0.2997828 -0.015680976 0.1675727 0.3347253 -0.17384778 0.045833997 0.25794896 -0.118060544 -0.003960418 -0.30640852 -0.057189107 0.48465234 -0.035235908 0.13880193 -0.05124167 -0.02039872 0.08927422 0.034408316 0.08243121 -0.1691402 -0.11765241 0.061872583 0.14852457 0.16579422 -0.051594492 0.028789893 -0.124716505 -0.0020349436 -0.21784095 0.011438261 -0.1052087 0.21778777
HEALTH 0.28745058 -0.12792543 -0.082243234 -0.08365726 -0.03466825 -0.1004246 -0.09594174 -0.2075566 0.17807217 -0.32624203 -0.24866985 0.30465633 -0.12075777 -0.09546613 0.33109233 -0.42485058 0.13428111 -0.13418481 -0.056747917 0.16058913 0.12074839 0.13301311 -0.08190173 0.18219915 -0.06603414 0.018093452 -0.060773574 0.2115108 0.037587058 -0.19633664 0.053341396 0.10742501 0.26669538 0.041632157 0.05605546 0.12435137 -0.018455792 -0.026822463 0.000125044 0.13607627 0.28153664 -0.1298373 -0.043360725 0.20742288 -0.09602774 -0.27704364 -0.104920805 -0.07108679 0.06610235 0.11585958 0.07310423 -0.14030024 0.3324957 0.11312955 -0.012770257 -0.028150951 0.12783977 -0.064874664 0.31050727 0.36601406 -0.16826655 0.1633013 -0.022649815 -0.15659474 -0.07075178 -0.02226004 0.090811834 0.059934475 0.25786984 -0.0032624532 0.1863563 0.31111968 -0.116377704 0.08360973 0.2977343 -0.12516214 -0.07223905 -0.25748372 -0.031596486 0.49785995 0.007456025 0.1350585 -0.07733637 0.03902199 0.09791371 0.066871665 0.09188327 -0.20753793 -0.09197302 0.086444154 0.14478247 0.17020798 -0.11290642 0.040822633 -0.09113872 0.09137473 -0.22999845 0.060354482 -0.14260584 0.2204933
WILL 0.29779756 -0.1280964 -0.15130074 -0.08319588 -0.09548588 -0.13251002 -0.11812285 -0.13224632 0.18949583 -0.32886097 -0.24239086 0.39619547 -0.11477727 -0.006415376 0.35483065 -0.50893784 0.0697758 -0.22043806 -0.11000958 0.22527109 0.2059003 0.07387436 -0.046652075 0.24137986 -0.013536877 0.021836104 -0.13389209 0.19300182 0.08183127 -0.19332018 -0.025651274 0.058681637 0.20546801 0.0696722 0.056214504 0.16188595 -0.06483137 -0.05283879 -0.06212313 0.12339988 0.21787992 -0.18173647 -0.09212339 0.26257363 -0.061202083 -0.2871419 -0.085639924 -0.023477683 0.16598548 0.15037802 0.080070086 -0.2448592 0.329179 0.03926084 -0.015411068 -0.027073432 0.13670273 -0.07006446 0.3723808 0.42922127 -0.17628923 0.19449714 -0.08359358 -0.09189604 -0.064383544 -0.042895917 -0.010751208 0.13724166 0.3279385 -0.027005875 0.18196699 0.37960583 -0.20272577 0.043290574 0.2508381 -0.120259635 0.00605052 -0.32568538 -0.052888524 0.51447266 -0.04577474 0.15443805 -0.043306977 -0.024919666 0.11632386 0.025068646 0.09563915 -0.19729406 -0.12779512 0.064160496 0.16067329 0.17680863 -0.052638248 0.023873262 -0.13772506 -0.030096125 -0.22865193 0.0057207346 -0.11599329 0.24004725
ITALY 0.2756548 -0.11628126 -0.095014535 -0.08503529 -0.02117385 -0.09266448 -0.090087816 -0.19743028 0.1697872 -0.29967967 -0.23415546 0.30583185 -0.11488594 -0.09143758 0.3245611 -0.4132412 0.10170074 -0.120696545 -0.041699458 0.15521577 0.11702358 0.12311052 -0.08097898 0.1885577 -0.055092994 0.017368516 -0.046584107 0.19673221 0.034648985 -0.16793345 0.041846745 0.08465243 0.23529251 0.025780633 0.04221864 0.13075334 -0.022336371 -0.03195969 0.015781822 0.1269333 0.24668714 -0.1363498 -0.02418076 0.20630473 -0.08993176 -0.25257674 -0.10161831 -0.047905304 0.07149872 0.119478025 0.0693982 -0.11740868 0.30631584 0.102069095 -0.02540941 -0.027162079 0.10793322 -0.05690136 0.30887142 0.36055496 -0.16647393 0.14819421 -0.023737343 -0.14820585 -0.05997489 -0.0053534447 0.0853057 0.08397674 0.24491777 0.0053742332 0.17958106 0.26634067 -0.12189581 0.08377341 0.2869772 -0.11882833 -0.0680797 -0.24935105 -0.03181424 0.46295527 0.015166184 0.12269467 -0.06508936 0.013829516 0.07573072 0.067369774 0.068715416 -0.17625025 -0.09559115 0.074621424 0.13912399 0.15716481 -0.0919679 0.033567954 -0.09871367 0.0787278 -0.19809327 0.04585603 -0.115991145 0.20590901
IMAGE 0.28427297 -0.10642418 -0.04282094 -0.08589002 0.05250452 -0.008156842 -0.065461956 -0.3008235 0.15771124 -0.32615143 -0.28812072 0.20204507 -0.14058813 -0.2018438 0.35696152 -0.36282668 0.18302737 -0.0335275 0.009936367 0.09602323 0.018432064 0.17807928 -0.15729772 0.12804092 -0.14070427 0.02403645 -0.008234313 0.22048016 -0.017991602 -0.15778354 0.17283005 0.11368579 0.32708263 -0.0029544646 0.03751913 0.096170105 0.021158181 -0.0018022928 0.088141955 0.1562602 0.36981383 -0.060219526 0.060182635 0.13193081 -0.18944922 -0.2934228 -0.13760985 -0.13576457 -0.04120791 0.07729348 0.094657734 -0.0015880831 0.36518773 0.1816825 -0.056773476 -0.0037658033 0.10486221 -0.057491142 0.23109917 0.31664848 -0.18828222 0.1117704 0.057218913 -0.23479037 -0.065256506 0.032418214 0.2183944 0.006938401 0.16699903 0.05721237 0.1858243 0.22986598 -0.034237765 0.15196142 0.3908969 -0.11753796 -0.17830883 -0.17825319 0.0051187817 0.5047591 0.06474632 0.09638299 -0.11443945 0.080066465 0.0696496 0.12669341 0.09638055 -0.19647945 -0.051969327 0.10724494 0.10534799 0.13962068 -0.18446809 0.07942683 -0.061001 0.19119126 -0.21321654 0.135549 -0.16026363 0.23405093
TIMES 0.5753498 -0.15111515 0.27196437 -0.08863634 0.5590093 0.47254038 0.08825421 -1.0439637 0.14952512 -0.6418889 -0.7167977 -0.25187492 -0.40104657 -0.95930064 0.67465633 -0.26509306 0.75236195 0.53832436 0.2997914 -0.17581758 -0.6056181 0.5396329 -0.6946782 -0.07244837 -0.7148833 0.13532877 0.27499956 0.4274842 -0.31759793 -0.09300095 1.0273905 0.2929737 1.06712 -0.14525121 -0.08431265 -0.11599164 0.34037203 0.19512919 0.619903 0.37306905 1.2845011 0.3861133 0.5770598 -0.26739338 -0.83407766 -0.69987476 -0.35693023 -0.6221514 -0.71408325 -0.12496761 0.33174562 0.7409641 0.88273066 0.78697634 -0.33265477 0.16123407 0.16771421 -0.06781646 -0.114262976 0.27517623 -0.46591964 -0.032215897 0.62726265 -0.8893518 -0.15843359 0.35803047 1.0996851 -0.3819613 -0.14610125 0.37112555 0.37986073 0.07440491 0.33181578 0.6154961 1.1867532 -0.15823188 -0.9519236 0.15108962 0.31930584 0.9234666 0.44103017 0.07457112 -0.4656615 0.49904263 0.07214038 0.5366838 0.29347074 -0.36746374 0.14246173 0.3809566 -0.0366126 0.112993 -0.81036377 0.31371474 0.099227786 1.0861554 -0.39247835 0.7919624 -0.44454953 0.5769089
SAYS 0.28603435 -0.12034661 -0.12481362 -0.09081612 -0.048704278 -0.12374702 -0.11076445 -0.17747714 0.17802292 -0.32693094 -0.24885562 0.34717277 -0.1278389 -0.05736054 0.34745374 -0.4675864 0.09206184 -0.16669743 -0.061422255 0.1783575 0.15271828 0.09821291 -0.060762208 0.21975183 -0.036721863 0.01749158 -0.08873456 0.20454443 0.050259497 -0.1873601 0.014028604 0.08664373 0.23205279 0.048950683 0.057235375 0.15161636 -0.043043897 -0.0420426 -0.013106014 0.13266225 0.23988716 -0.15517858 -0.050861187 0.22725543 -0.08054573 -0.27816495 -0.10592682 -0.039784696 0.1131855 0.12961733 0.08411028 -0.1745823 0.31529257 0.072761215 -0.022548763 -0.029736659 0.1283027 -0.055356864 0.33027434 0.3960128 -0.17356697 0.17678018 -0.04442521 -0.12717819 -0.06735225 -0.009946022 0.04289395 0.101626985 0.2811528 -0.012031692 0.18434471 0.33895695 -0.1545974 0.08984956 0.27049318 -0.113558605 -0.042254224 -0.27461153 -0.030031083 0.49306357 -0.013358416 0.13367677 -0.06628192 -0.005131908 0.10100405 0.036214694 0.08114884 -0.19399774 -0.10686302 0.09139344 0.15143657 0.1681949 -0.08604328 0.0355346 -0.11492133 0.035907924 -0.2190889 0.034004945 -0.12801538 0.23703255
WATER 0.31690773 -0.14548405 -0.18455559 -0.07837932 -0.17737663 -0.09803218 -0.10602621 -0.07831186 0.17506687 -0.34158835 -0.24773724 0.41571006 -0.118595645 0.07683318 0.4060543 -0.55523044 0.062715374 -0.25554243 -0.16422439 0.23872179 0.25924283 -0.027121548 -0.018370349 0.3127008 0.0078927055 0.05698929 -0.23669331 0.18348373 0.13519827 -0.13143937 -0.051536698 -0.028175246 0.1564123 0.11347782 0.03868369 0.122295745 -0.13656439 -0.052095972 -0.08121535 0.09753421 0.22732595 -0.13298093 -0.09298883 0.27290472 -0.07553311 -0.32358637 -0.09212887 -0.028276855 0.22893077 0.13950545 0.14691119 -0.32047263 0.3557797 -0.03517336 -0.04082195 0.038625564 0.14791456 -0.12314233 0.37060377 0.48364496 -0.20403184 0.17553121 -0.11920911 -0.032601807 -0.055167336 -0.07371027 -0.10470192 0.16778144 0.3530873 -0.0749847 0.19275631 0.50076836 -0.28271466 0.029173253 0.21560733 -0.10449563 0.021697273 -0.3652401 -0.028177533 0.5551768 -0.09942705 0.13479309 -0.009329305 -0.045368023 0.15690313 0.0013418454 0.13993934 -0.1907672 -0.12555252 0.052225392 0.1692909 0.15839195 -0.040788103 0.029922029 -0.15418829 -0.1431449 -0.25411525 -0.024038808 -0.10375271 0.29394233
YOU 0.2914126 -0.16627131 -0.20110828 -0.06538503 -0.17992586 -0.16627544 -0.11081443 -0.07321642 0.20510827 -0.35183072 -0.22091168 0.4180852 -0.1315606 0.061424725 0.36845914 -0.5628708 0.025215177 -0.2923121 -0.16443309 0.23076735 0.25111094 -0.039013647 -0.013115163 0.3214319 0.02175298 0.05071034 -0.2266401 0.19676626 0.1371717 -0.16000697 -0.07708609 0.0067649097 0.13330895 0.0723975 0.06999384 0.1781597 -0.11809261 -0.05637147 -0.08832023 0.095995 0.18149173 -0.17081198 -0.113324575 0.30901504 -0.025013294 -0.31630215 -0.06759197 0.010810358 0.2602374 0.16137004 0.112298995 -0.33282557 0.32202968 -0.03460336 -0.029305236 -0.00070401136 0.15336286 -0.08715099 0.3967083 0.49134016 -0.18277046 0.18724097 -0.15313871 -0.03953125 -0.068166286 -0.064942 -0.10816994 0.21127284 0.36965188 -0.08015793 0.17433932 0.50046533 -0.3042219 -0.003575712 0.1772642 -0.10470031 0.06481033 -0.40478227 -0.029195769 0.5372223 -0.09011592 0.15987566 -0.028416634 -0.08042096 0.17277172 -0.03380194 0.12774791 -0.17704214 -0.15451223 0.0597602 0.20546228 0.16722442 -0.005646739 0.018034473 -0.18270701 -0.15888004 -0.2319264 -0.039071694 -0.074355066 0.28554296
BEING 0.2747536 -0.119669154 -0.08257374 -0.097155236 -0.0046453523 -0.087944195 -0.09513837 -0.21543837 0.168956 -0.3158488 -0.25521076 0.29691947 -0.11752227 -0.10459286 0.33532134 -0.41914546 0.12085581 -0.11952615 -0.03998171 0.15319094 0.11196445 0.13878836 -0.094452016 0.18577573 -0.07802659 0.01766767 -0.04991279 0.20888776 0.026431156 -0.1716758 0.052430198 0.0984077 0.25548822 0.014190199 0.039060805 0.14943217 -0.006395517 -0.02047678 0.016965618 0.13666229 0.26504457 -0.13900639 -0.012678816 0.20324287 -0.10630996 -0.2618496 -0.105400786 -0.05604901 0.060840458 0.11396592 0.074601 -0.11830293 0.32349476 0.112255864 -0.023581307 -0.022658326 0.10547433 -0.06427532 0.30531296 0.35928807 -0.16993584 0.15059918 -0.013704138 -0.16235037 -0.06258731 -0.005711444 0.106374964 0.068098105 0.230966 0.020865103 0.18349592 0.27733138 -0.11164032 0.09949372 0.31411812 -0.123550646 -0.07518027 -0.2490152 -0.037533186 0.48067218 0.019512584 0.1147434 -0.07609605 0.025353942 0.08188069 0.09031874 0.07765332 -0.18459167 -0.0928614 0.076930895 0.14233424 0.16361721 -0.10177472 0.04337724 -0.09704333 0.08686064 -0.21425404 0.057813037 -0.12276756 0.2158555
THEY 0.30047196 -0.13022621 -0.14829884 -0.09112295 -0.07847464 -0.13216981 -0.116456985 -0.15347552 0.19338933 -0.3272503 -0.23175061 0.3696058 -0.120624155 -0.03390737 0.34864354 -0.49100938 0.06938775 -0.19573814 -0.08675858 0.20055017 0.16716047 0.07664731 -0.048025645 0.25111282 -0.025309581 0.021113398 -0.10665293 0.20070939 0.06570685 -0.19814755 -0.017558347 0.0788609 0.20747657 0.050734993 0.059647363 0.17086399 -0.046413064 -0.040923752 -0.039050758 0.119034536 0.21718809 -0.18003613 -0.064691864 0.26347116 -0.05848594 -0.27620077 -0.092157535 -0.013030869 0.14889921 0.13929929 0.07542735 -0.2078583 0.3228679 0.053336944 -0.014687447 -0.028446889 0.13340232 -0.06757266 0.35401046 0.40780234 -0.16458379 0.18495765 -0.076325215 -0.10800062 -0.070369944 -0.029209228 0.0154407555 0.13313468 0.30357438 -0.019752264 0.1836764 0.3544275 -0.19346482 0.05572011 0.25005215 -0.121081635 0.00079798873 -0.31537837 -0.03900117 0.49422893 -0.03799041 0.13371515 -0.05897339 -0.02352979 0.10928201 0.031149937 0.07866218 -0.18603085 -0.1242901 0.0714209 0.1618541 0.17631096 -0.052132923 0.017361388 -0.124944136 -0.008981538 -0.21290919 0.009854863 -0.115867555 0.22773497
BECAUSE 0.28045478 -0.12276111 -0.11600758 -0.08388685 -0.05289604 -0.12319875 -0.100460395 -0.17000788 0.1847119 -0.30933923 -0.22970463 0.3522322 -0.11800476 -0.055646528 0.32891613 -0.45184496 0.0859831 -0.1741903 -0.081126995 0.18472022 0.15291847 0.104767606 -0.062929966 0.2119301 -0.04029057 0.013761705 -0.08490546 0.19379355 0.047227487 -0.18424046 0.009326604 0.07887943 0.23231015 0.050425164 0.0485627 0.14643072 -0.038864296 -0.039820597 -0.02072589 0.12124604 0.22964613 -0.17276575 -0.06365064 0.23700115 -0.066153936 -0.25956345 -0.09879177 -0.033375904 0.11329601 0.1323537 0.072581775 -0.17994732 0.31480485 0.072779626 -0.009287403 -0.039558858 0.1269883 -0.05518598 0.3422069 0.39480507 -0.16910416 0.17762797 -0.048155908 -0.12587154 -0.06679287 -0.027571881 0.04088866 0.10798489 0.28674027 -0.004009284 0.1755965 0.32084447 -0.15775965 0.061318725 0.26988256 -0.11918426 -0.029402643 -0.28273502 -0.04779439 0.49192062 -0.012056814 0.1405532 -0.056673836 -0.0022978731 0.09045828 0.049166463 0.08051132 -0.19482218 -0.10633537 0.0730851 0.15472195 0.16629861 -0.070896186 0.0213063 -0.11456384 0.032422416 -0.21617496 0.025112862 -0.11836347 0.20773885
POSTS 0.49928933 -0.11212625 0.19860078 -0.074160315 0.44606653 0.36704543 0.04801568 -0.842506 0.13968608 -0.53118783 -0.5873695 -0.16102654 -0.31460097 -0.75644606 0.57761633 -0.268385 0.5974337 0.41464594 0.23853323 -0.13031992 -0.46634144 0.42463142 -0.53668255 -0.034888916 -0.5649957 0.08619216 0.1982175 0.37871373 -0.24700004 -0.09759513 0.82974267 0.23555753 0.85913014 -0.10394452 -0.052360475 -0.057166725 0.26428273 0.15565847 0.5021939 0.2927855 1.0092218 0.3020143 0.47317705 -0.20429976 -0.68377745 -0.5704434 -0.29517385 -0.49811143 -0.55170035 -0.0821693 0.2501802 0.5814915 0.70265454 0.64731693 -0.23662378 0.11561661 0.14799981 -0.051037166 -0.065399796 0.25415725 -0.39466134 0.007119015 0.484811 -0.68865085 -0.11397862 0.26573372 0.8760672 -0.27731934 -0.11430253 0.28047293 0.29587495 0.06794729 0.2534876 0.4944062 0.9584358 -0.15302694 -0.7455848 0.11621711 0.25511277 0.75468767 0.34458503 0.06834807 -0.35705385 0.39018014 0.042052463 0.42253256 0.22751878 -0.30944717 0.11342492 0.32875317 -0.0033689546 0.092541285 -0.6567933 0.251103 0.065185286 0.8716468 -0.32200864 0.6346115 -0.3671524 0.46570626
WUHAN 0.27913064 -0.09916925 -0.0861401 -0.093262345 -0.0057809427 -0.09634382 -0.09400208 -0.20593399 0.17771317 -0.30903614 -0.2517663 0.29831123 -0.118851915 -0.11138254 0.32951272 -0.42226037 0.10944321 -0.11198618 -0.037534162 0.15157147 0.11172119 0.12827606 -0.08782592 0.18012762 -0.06442902 0.025778104 -0.04495727 0.20251149 0.016823515 -0.17016554 0.051034436 0.09547038 0.25317308 0.032190323 0.047521286 0.13278359 -0.012351644 -0.029157847 0.010626595 0.13555275 0.26173013 -0.13044246 -0.021234242 0.19111069 -0.097305164 -0.2625606 -0.10641252 -0.060574688 0.061773926 0.116375156 0.07512456 -0.11049499 0.31827068 0.106774025 -0.03071228 -0.03447909 0.10811485 -0.06182452 0.3099462 0.34837747 -0.16938457 0.15649302 -0.01442616 -0.15205142 -0.061468754 0.0055378256 0.10201994 0.057498354 0.23823868 0.0140937185 0.17373934 0.28272027 -0.10139423 0.09994189 0.30871627 -0.11638137 -0.079435594 -0.23691632 -0.037563574 0.46944368 0.015334954 0.12905096 -0.071640566 0.027239598 0.077383325 0.08081582 0.07574969 -0.18091215 -0.084892415 0.07907862 0.1376315 0.16241263 -0.101948924 0.037219036 -0.083698034 0.09394854 -0.21024172 0.061154276 -0.12161694 0.2088522
SPREAD 0.2508436 -0.09256988 -0.09728237 -0.072276026 -0.04247589 -0.10969291 -0.10330608 -0.12592588 0.15639096 -0.2627078 -0.20167194 0.31548503 -0.10426845 -0.02512808 0.2868927 -0.41040143 0.06601285 -0.15480228 -0.07757745 0.1798319 0.14617182 0.083308205 -0.0460697 0.17831898 -0.036906887 0.01760991 -0.0838145 0.1646556 0.053145956 -0.15978578 -0.0030086122 0.052894898 0.19042505 0.045791026 0.04097522 0.13274902 -0.046016254 -0.032531478 -0.02958676 0.09017271 0.18739526 -0.15337166 -0.060747594 0.19731463 -0.061041676 -0.2274783 -0.07801974 -0.010078092 0.1046949 0.12168453 0.063086756 -0.17512657 0.2728831 0.05687906 -0.012622861 -0.027233774 0.11267512 -0.04750679 0.3022083 0.337491 -0.14384644 0.15940307 -0.050585944 -0.09973105 -0.04860484 -0.03432173 0.013848923 0.08744227 0.26144606 -0.0026325807 0.15147853 0.28016108 -0.14199582 0.03707261 0.22840361 -0.10706524 -0.007567345 -0.2595174 -0.042942975 0.41852677 -0.024278484 0.11744587 -0.040254228 -0.0066876486 0.06765665 0.04170352 0.07211858 -0.16879895 -0.108742766 0.0579418 0.13915001 0.14737718 -0.058902495 0.016177401 -0.109163634 0.01284654 -0.19040537 0.009967151 -0.093448155 0.17346662
DIED 0.26854867 -0.10513321 -0.10544366 -0.08136478 -0.02879799 -0.10457122 -0.09367215 -0.1900978 0.16583651 -0.29480135 -0.23139697 0.3122203 -0.09977347 -0.06352639 0.32114723 -0.4203196 0.090734184 -0.13512416 -0.04366789 0.16720513 0.11814343 0.121541604 -0.059612095 0.18496427 -0.05049012 0.019130617 -0.063253455 0.19429375 0.023492305 -0.17352764 0.03290297 0.097269155 0.22785802 0.041289136 0.03807189 0.14141151 -0.022983909 -0.02735468 0.0070389593 0.12830873 0.21748714 -0.15595675 -0.038233224 0.20758095 -0.078303926 -0.25405824 -0.100054346 -0.027915003 0.07553252 0.12994999 0.05608932 -0.13664906 0.31048274 0.076873295 -0.019036891 -0.03141619 0.119339034 -0.050898846 0.32247654 0.35656315 -0.15751979 0.15637748 -0.038958583 -0.12992968 -0.067766115 -0.002102097 0.07754165 0.08692262 0.2621435 0.009021992 0.16422106 0.27581233 -0.13108252 0.06789355 0.2779862 -0.118521586 -0.047862858 -0.2522816 -0.049319565 0.45659906 -0.0017013926 0.11303047 -0.065874755 0.00021787612 0.07945362 0.060790487 0.0758345 -0.15745758 -0.0979402 0.06614652 0.13184902 0.14599805 -0.08741905 0.03461795 -0.10730516 0.060740475 -0.20000143 0.048217837 -0.11699479 0.19352776
POLICE 0.27313736 -0.12183043 -0.10092839 -0.08802701 -0.014992582 -0.10615018 -0.10462484 -0.20059901 0.18094204 -0.3139334 -0.23985726 0.31650752 -0.11629442 -0.08383067 0.342461 -0.43439427 0.11045432 -0.1368557 -0.04680629 0.17061782 0.1268881 0.13601519 -0.08087797 0.19422452 -0.064329326 0.01188549 -0.05460233 0.20374209 0.028466525 -0.17302243 0.025710378 0.10211005 0.24080916 0.019590033 0.038642537 0.14868708 -0.01666149 -0.03580488 0.009330054 0.14447428 0.23757295 -0.15524656 -0.03146017 0.22606583 -0.0900946 -0.2561963 -0.09684456 -0.046654437 0.076673605 0.12411804 0.07327277 -0.14113572 0.3137437 0.086772405 -0.021804135 -0.032410342 0.10533848 -0.06226086 0.3220314 0.36114657 -0.15750565 0.15754977 -0.034723215 -0.13971287 -0.060456585 -0.00027027962 0.08757364 0.079509735 0.24695142 0.0030660615 0.18397819 0.28382543 -0.11843718 0.0861688 0.28741628 -0.12379146 -0.05568552 -0.27188995 -0.05288994 0.48804992 0.015103022 0.11916006 -0.07500866 0.009986317 0.08180081 0.07910342 0.07485236 -0.18800391 -0.101738095 0.074687496 0.14503795 0.15803927 -0.092821054 0.04630066 -0.09923602 0.06176335 -0.21433605 0.041386012 -0.11203425 0.19954596
INDIAN 0.3097086 -0.13914531 -0.10622671 -0.09981681 -0.043319423 -0.11830613 -0.11033157 -0.2056198 0.18285657 -0.3465543 -0.2646893 0.35268903 -0.12433449 -0.09483686 0.37181342 -0.48696104 0.12939923 -0.1546092 -0.065095164 0.1835541 0.1514886 0.13816582 -0.0841484 0.20157777 -0.056924168 0.014175892 -0.07037443 0.22201225 0.038057465 -0.20730613 0.03689013 0.108978905 0.27321237 0.033308335 0.061174583 0.15328734 -0.029937053 -0.029787969 -0.0034176835 0.14998351 0.27515507 -0.1694859 -0.0510625 0.2381607 -0.10644189 -0.2878136 -0.10468656 -0.061958294 0.084510185 0.13276157 0.07878877 -0.16866778 0.36187837 0.09352158 -0.018313995 -0.0428848 0.13287297 -0.07314329 0.3534983 0.40096673 -0.17401022 0.18372726 -0.04486976 -0.15620326 -0.08040392 -0.018895535 0.084376946 0.09089755 0.28837302 -0.00079100195 0.19700335 0.32696065 -0.14282562 0.08832819 0.31672725 -0.13921358 -0.047980495 -0.29094392 -0.044262785 0.5292574 0.00713112 0.15105475 -0.07834681 0.023133004 0.105288856 0.06376504 0.09508057 -0.21863121 -0.11270758 0.07519921 0.15906423 0.18807524 -0.10426172 0.045241784 -0.10361442 0.06034865 -0.23404126 0.05232783 -0.14543155 0.23527628
US 0.2812809 -0.11290523 -0.09243402 -0.08690644 -0.019669248 -0.090557344 -0.09606849 -0.2056558 0.16433749 -0.30940953 -0.25655323 0.31295547 -0.11869327 -0.093568265 0.33187065 -0.4305132 0.10907659 -0.12292834 -0.045902874 0.16087346 0.11235682 0.11959885 -0.0945769 0.1821158 -0.06483894 0.016134107 -0.06982766 0.2085058 0.01818092 -0.18749489 0.05638265 0.09551644 0.25192446 0.043799266 0.05882865 0.13732107 -0.019343419 -0.020660572 0.0025704768 0.13273057 0.26602694 -0.13978173 -0.030468702 0.1796777 -0.10428458 -0.27575544 -0.11024407 -0.06563518 0.06485956 0.12466462 0.087179735 -0.1204018 0.32779822 0.109251805 -0.025991278 -0.0305301 0.12556733 -0.058383863 0.30780193 0.35686645 -0.16782638 0.15982673 -0.0068076607 -0.15809332 -0.068276405 0.005522474 0.095031135 0.05892924 0.25041017 0.0102030495 0.18406329 0.29643586 -0.114065014 0.107244365 0.30496097 -0.115254626 -0.06841515 -0.23960224 -0.0230831 0.4772023 0.0061349976 0.13938637 -0.0682844 0.01710743 0.09054345 0.061461367 0.08311367 -0.1961391 -0.08455061 0.09005972 0.12942983 0.15607953 -0.09963255 0.044384886 -0.09771456 0.085997805 -0.21873184 0.061062735 -0.1333282 0.22550541
WERE 0.28716108 -0.11549135 -0.10397657 -0.08155111 -0.009712052 -0.08662637 -0.1004991 -0.2067596 0.1787289 -0.31408703 -0.25001496 0.3141764 -0.12609471 -0.09357684 0.33608526 -0.43782657 0.118164375 -0.13256009 -0.043761745 0.15844557 0.10797906 0.12497199 -0.082763754 0.19874701 -0.07348394 0.022057297 -0.054583836 0.21224101 0.022830503 -0.1808068 0.05944693 0.09495525 0.2509528 0.029675884 0.044069905 0.13650733 -0.015118531 -0.030350247 0.017285643 0.1381159 0.27189815 -0.13222682 -0.01523488 0.20058054 -0.107414156 -0.27668095 -0.10247533 -0.05588423 0.07465649 0.12142582 0.07666714 -0.12998804 0.33220893 0.10283528 -0.029777668 -0.031851903 0.120361626 -0.06368122 0.30669734 0.3728219 -0.17947243 0.16163969 -0.025014201 -0.1520416 -0.070834294 -0.0047251675 0.087072626 0.075279094 0.24981456 0.017119337 0.17836078 0.2984171 -0.12101981 0.087139174 0.30508327 -0.11933437 -0.070373 -0.25549123 -0.027249891 0.48635572 0.0020726349 0.12733607 -0.08213564 0.017066432 0.08350974 0.07977779 0.084992014 -0.18442084 -0.09397522 0.085559845 0.14626086 0.16004959 -0.1044027 0.03739576 -0.09280339 0.08433378 -0.21979238 0.0614846 -0.12747392 0.22099662
THEIR 0.28374028 -0.12296326 -0.12942176 -0.08521749 -0.05471199 -0.11447709 -0.10725126 -0.15763725 0.18556656 -0.32204816 -0.22756304 0.3586052 -0.11242585 -0.039594993 0.33788133 -0.46211603 0.08256852 -0.1854267 -0.09132162 0.19268443 0.15964863 0.09324813 -0.048322063 0.22051713 -0.030829357 0.016240628 -0.100039035 0.20204715 0.064352416 -0.1799274 -0.0033602498 0.081126794 0.22055194 0.045915842 0.049698588 0.1528351 -0.050922453 -0.038690936 -0.029313626 0.11825986 0.21954158 -0.17259505 -0.07028049 0.24915141 -0.060348175 -0.2606376 -0.08894942 -0.028209753 0.13473155 0.13878503 0.07902767 -0.20212975 0.31571078 0.0603229 -0.017201446 -0.028157504 0.12250771 -0.068460174 0.3372704 0.40091643 -0.16003491 0.17553893 -0.062484693 -0.12021779 -0.069123164 -0.034865674 0.020874066 0.11118676 0.29068923 -0.0059671793 0.1857645 0.33129382 -0.18046965 0.050800577 0.25594023 -0.121227406 -0.011876357 -0.2994821 -0.038168047 0.49233907 -0.026743615 0.13922948 -0.058104336 -0.008336483 0.09499231 0.047671966 0.083834715 -0.18306372 -0.11377781 0.06518763 0.15381485 0.17377137 -0.069181964 0.024191903 -0.11827994 0.005777284 -0.20633276 0.019181961 -0.119725265 0.22173844
WHICH 0.3045689 -0.106370226 -0.055054862 -0.086058885 0.027479742 -0.021170935 -0.0671226 -0.26800463 0.1534247 -0.32579458 -0.28981277 0.22596581 -0.13422664 -0.17194077 0.35051876 -0.38891518 0.17419316 -0.05720473 -0.006874717 0.1180716 0.043808203 0.14851435 -0.14156736 0.16222878 -0.12340314 0.03114846 -0.03337174 0.20965287 -0.002306858 -0.1534892 0.15463895 0.09014698 0.30802724 0.022937486 0.035567638 0.09770134 0.006063201 -0.0056037414 0.06890731 0.13965349 0.34482902 -0.062673904 0.042349495 0.1337508 -0.18410347 -0.30101377 -0.124239765 -0.118941754 -0.014918895 0.089361735 0.103898436 -0.03447686 0.36762863 0.16300116 -0.046818443 -0.003783008 0.111058 -0.06001324 0.24341908 0.3352559 -0.1904688 0.12521645 0.047704946 -0.21021019 -0.0689993 0.030698933 0.17387928 0.030600566 0.18269044 0.03878382 0.18239303 0.26344532 -0.07441074 0.14096436 0.37021795 -0.11298987 -0.15876156 -0.1875916 0.01835613 0.49690703 0.044770796 0.11093541 -0.10770663 0.06585312 0.079552114 0.101269156 0.09824706 -0.19557713 -0.055904146 0.11543862 0.11580804 0.13358855 -0.16930147 0.0657605 -0.07924457 0.16426393 -0.2223198 0.12931105 -0.14998713 0.2519559
SAID 0.29542777 -0.12426461 -0.10833257 -0.08604265 -0.04744899 -0.11543155 -0.10011457 -0.19497272 0.18745218 -0.33801493 -0.2596264 0.35193178 -0.13230693 -0.07623593 0.34847513 -0.47093442 0.11106957 -0.14868194 -0.06620075 0.19044948 0.14501348 0.12096305 -0.07968543 0.2103641 -0.049811225 0.02331364 -0.0856582 0.2082466 0.036533277 -0.20366234 0.03917465 0.10046215 0.2505114 0.05294722 0.063648336 0.14829643 -0.03622628 -0.040033042 -0.015726967 0.1333243 0.2640653 -0.16174555 -0.051862642 0.2164613 -0.092418835 -0.2895798 -0.11573696 -0.05928442 0.0951737 0.13286853 0.08568066 -0.15624194 0.3388455 0.09447808 -0.016534586 -0.038755435 0.14057839 -0.05603745 0.336845 0.39702573 -0.18146941 0.1756371 -0.023013232 -0.14625889 -0.079823785 -0.0135908 0.06893144 0.08586255 0.28339446 0.0068113445 0.18415293 0.33747438 -0.1438431 0.08881649 0.2954872 -0.12107677 -0.06169364 -0.2805015 -0.030456213 0.509245 -0.007317139 0.14796843 -0.06690138 0.013427751 0.09826873 0.045467272 0.090273164 -0.20555481 -0.105174765 0.0903945 0.14683329 0.16647781 -0.09970353 0.039702203 -0.10914352 0.063128896 -0.23495276 0.04954394 -0.13973826 0.23279212
MINISTER 0.28323093 -0.12183191 -0.0900507 -0.08737318 -0.0402564 -0.09602731 -0.07284531 -0.20417155 0.1531193 -0.31819022 -0.2449477 0.29094484 -0.120021366 -0.10374174 0.32710937 -0.41666418 0.14021249 -0.13213193 -0.055184882 0.16793784 0.12280286 0.15640669 -0.08307578 0.18161449 -0.04456396 0.02349642 -0.053220447 0.19188589 0.017689446 -0.19320382 0.05291022 0.10364789 0.25480542 0.033023596 0.073401146 0.117529005 -0.0181479 -0.03994207 0.0047805 0.12778091 0.27361742 -0.14724551 -0.043399002 0.2179817 -0.09627621 -0.2651106 -0.104283385 -0.054409366 0.05299942 0.10893323 0.0667394 -0.13561013 0.3352184 0.08060087 -0.0029760255 -0.02998288 0.13643365 -0.04720147 0.29379135 0.36214364 -0.1667299 0.1529618 -0.00929479 -0.15895103 -0.06780468 -0.00606257 0.07246736 0.07776686 0.27251855 -0.0035318094 0.16905303 0.27180701 -0.12114868 0.0748928 0.28621066 -0.10832641 -0.06983489 -0.24514103 -0.01851109 0.45732272 0.00035606496 0.12560126 -0.06822376 0.013438356 0.10156108 0.07344629 0.09740511 -0.20081982 -0.074298725 0.065528415 0.12170381 0.16279157 -0.10472855 0.03621628 -0.09836256 0.08017915 -0.22489367 0.06346887 -0.14129025 0.2034408
QUARANTINE 0.2719784 -0.11196559 -0.115674525 -0.085837424 -0.051562335 -0.12477708 -0.100904405 -0.15794216 0.17415757 -0.30664313 -0.22878578 0.34426728 -0.10282003 -0.044239096 0.31576324 -0.44109416 0.07928742 -0.17465007 -0.0769672 0.1803692 0.15875854 0.10005102 -0.053817242 0.20971228 -0.03028225 0.010306886 -0.077749014 0.18616885 0.056377467 -0.183454 0.001981169 0.08599667 0.21076125 0.038397867 0.049140826 0.15067686 -0.034966882 -0.036781903 -0.028977677 0.12019577 0.20678906 -0.16210389 -0.06702228 0.22871225 -0.06210981 -0.24970716 -0.08938768 -0.026020268 0.118788816 0.12843649 0.06456134 -0.18742307 0.304864 0.05592122 -0.0039413725 -0.03316928 0.11069233 -0.059407074 0.3266615 0.3681911 -0.1503614 0.16303149 -0.054264303 -0.11347503 -0.06531753 -0.02819352 0.03322494 0.10278316 0.27394664 -0.008076821 0.18083893 0.30314797 -0.15959264 0.067633815 0.24750653 -0.113023594 -0.011284367 -0.2730932 -0.05392189 0.46091303 -0.023604004 0.13623656 -0.049915753 -0.010681881 0.09705024 0.042839054 0.07624975 -0.17850852 -0.10819246 0.06025321 0.15031594 0.16302302 -0.062418435 0.021145362 -0.11088975 0.014374782 -0.2011982 0.02091729 -0.11101401 0.19734627
POST 0.30795366 -0.10156671 -0.033183932 -0.07239833 0.07615713 0.008373527 -0.057225753 -0.31865424 0.1470443 -0.339481 -0.3045084 0.18547782 -0.14890434 -0.21719873 0.37630513 -0.3659066 0.20965703 -0.012904455 0.020255435 0.081668645 -0.00791502 0.17052735 -0.16870582 0.13145149 -0.15719177 0.029796408 -0.00718897 0.23434994 -0.024669863 -0.135646 0.2144885 0.11493692 0.35507253 0.0005652538 0.03395586 0.08083403 0.039039113 0.010638393 0.10227141 0.16202688 0.4044753 -0.03286297 0.07624356 0.09326213 -0.2234203 -0.30824223 -0.14222199 -0.14952524 -0.06450069 0.068298675 0.10411937 0.028907932 0.3893559 0.19007032 -0.063104115 0.014147469 0.11486457 -0.059328165 0.20911059 0.31117573 -0.20931822 0.11223674 0.07600044 -0.25502178 -0.06808097 0.05609789 0.24374002 -0.004716688 0.1489617 0.053343613 0.18713208 0.23770839 -0.025070671 0.1718114 0.4047027 -0.107670054 -0.20249702 -0.14378195 0.030316478 0.500317 0.07951747 0.10663165 -0.13317919 0.091598816 0.08372895 0.12477644 0.11213722 -0.20100975 -0.04487857 0.13461733 0.090102494 0.12490353 -0.20678832 0.08740456 -0.06326267 0.21208039 -0.22965406 0.17449474 -0.1743768 0.26560652
HIS 0.28996077 -0.12203739 -0.11009855 -0.09141102 -0.037872538 -0.11639538 -0.10168744 -0.19498648 0.18479434 -0.31895185 -0.2509093 0.34419936 -0.118505724 -0.06722325 0.34803718 -0.45947972 0.11331338 -0.15976983 -0.058139592 0.18760528 0.13835315 0.12902555 -0.069076635 0.2067614 -0.055353902 0.020420235 -0.06560208 0.21363546 0.043281365 -0.19558336 0.02288811 0.100601 0.24915542 0.0434537 0.04790408 0.15121587 -0.02434508 -0.04139359 -0.0073584593 0.13968095 0.24576391 -0.1607102 -0.049792606 0.22771513 -0.089002185 -0.2724663 -0.10438932 -0.049708705 0.089104764 0.1393319 0.06596026 -0.16515628 0.3317107 0.094018765 -0.020865923 -0.040163103 0.13065292 -0.06523862 0.34703454 0.3929078 -0.16900861 0.17069617 -0.03933025 -0.13770239 -0.07364947 -0.008845425 0.07081721 0.09157504 0.27550825 0.009156317 0.19089091 0.31463042 -0.14575803 0.0790345 0.28659105 -0.12115885 -0.049022656 -0.27910802 -0.04842646 0.5031034 -0.009977653 0.14058292 -0.05980207 -0.000108731394 0.09229505 0.069133885 0.08315823 -0.19287607 -0.09759074 0.07236833 0.15483731 0.17691095 -0.095299214 0.039966956 -0.11597779 0.05840166 -0.21937072 0.033131298 -0.12562738 0.21676792
CASES 0.27724954 -0.113617875 -0.07960618 -0.08210187 -0.02940373 -0.07711516 -0.08893397 -0.18360133 0.15185194 -0.29692915 -0.24057794 0.3000163 -0.13289227 -0.09651134 0.31482086 -0.40139517 0.11547969 -0.116947584 -0.06168436 0.1619632 0.11840016 0.10619103 -0.088069804 0.17514105 -0.0658008 0.030038137 -0.06327034 0.1836518 0.021137001 -0.17745598 0.046295624 0.09094083 0.2533765 0.038055994 0.041611988 0.11643024 -0.030604063 -0.02378761 -0.0007702064 0.117341556 0.25061768 -0.13637242 -0.027436456 0.18422261 -0.09840511 -0.2643411 -0.09660274 -0.056466613 0.06310161 0.11495983 0.081165336 -0.12818627 0.32668316 0.09625014 -0.025832523 -0.03144069 0.12588568 -0.057418417 0.30787125 0.35121465 -0.16717955 0.14974917 -0.015140585 -0.15825391 -0.06291882 -0.0040896763 0.07887068 0.07787685 0.24947654 0.017256986 0.1678724 0.3041377 -0.12845778 0.084939934 0.29660523 -0.10764543 -0.0716522 -0.24697472 -0.030876335 0.46946725 0.010966079 0.12964615 -0.069047496 0.020305924 0.096105374 0.0646284 0.0906945 -0.18619286 -0.08973851 0.07873278 0.117029764 0.16261773 -0.09417002 0.040223803 -0.100821815 0.069239944 -0.20753287 0.06676948 -0.1283718 0.22601368
STATE 0.28311723 -0.12429414 -0.106918216 -0.09063068 -0.039949868 -0.09658176 -0.09300187 -0.18415539 0.17518969 -0.31065467 -0.24340858 0.3235821 -0.11518607 -0.075721145 0.32215062 -0.43167588 0.10685641 -0.1396939 -0.059400506 0.17281 0.13682224 0.11838548 -0.08108749 0.18920806 -0.054679684 0.010615241 -0.06135202 0.19194204 0.037882753 -0.18502784 0.026111178 0.1042159 0.24184734 0.03579167 0.05510379 0.13835919 -0.032501806 -0.034551725 -0.011676136 0.13267982 0.24343117 -0.15066686 -0.050502907 0.21596989 -0.08407394 -0.26248872 -0.099066876 -0.05831549 0.082523465 0.12614076 0.0689925 -0.16048862 0.32510963 0.088051535 -0.018225037 -0.03470369 0.11443335 -0.05749725 0.322542 0.36594313 -0.16491206 0.16965723 -0.03702341 -0.14327762 -0.06888151 -0.009982433 0.062402096 0.087210156 0.27029985 0.005160891 0.18759014 0.3047974 -0.13201615 0.0833791 0.27343804 -0.11930486 -0.04457946 -0.27030057 -0.041885257 0.48999706 0.0009267579 0.12736319 -0.06883683 0.014447088 0.08911233 0.053692333 0.08716177 -0.1963659 -0.09337515 0.06909002 0.13599713 0.15835164 -0.07968164 0.03505305 -0.109827414 0.058771312 -0.21625447 0.036682203 -0.11932185 0.2099939
